<?xml version="1.0"?>
<opencv_storage>
<opencv_ml_svm>
  <!-- 0.1823-->
  <format>3</format>
  <svmType>C_SVC</svmType>
  <kernel>
    <type>LINEAR</type></kernel>
  <C>1.</C>
  <term_criteria><iterations>1000</iterations></term_criteria>
  <var_count>1764</var_count>
  <class_count>2</class_count>
  <class_labels type_id="opencv-matrix">
    <rows>2</rows>
    <cols>1</cols>
    <dt>i</dt>
    <data>
      0 1</data></class_labels>
  <sv_total>1</sv_total>
  <support_vectors>
    <_>
      -1.60942704e-03 -9.33460072e-02 -6.66350648e-02 1.71631295e-02
      -5.46843570e-04 -6.66329032e-03 -1.28244355e-01 -3.23426872e-02
      -2.77189761e-02 -8.95240065e-03 -8.36122930e-02 -9.16686207e-02
      2.84655392e-02 4.44446541e-02 8.74929503e-03 -7.15162605e-02
      -2.70987954e-02 -5.77633083e-02 -6.32641092e-02 -9.58662406e-02
      -5.86779676e-02 -3.85478102e-02 7.13541582e-02 7.32083917e-02
      -1.62870120e-02 -7.66766199e-04 3.68851759e-02 -5.36829419e-02
      4.57863435e-02 -3.58600356e-02 2.01535150e-02 1.92811266e-02
      3.53029333e-02 -5.60263954e-02 7.63272343e-04 -3.44675183e-02
      -2.75083706e-02 -6.03960231e-02 -4.06283215e-02 1.73416790e-02
      -1.51160015e-02 5.43267094e-02 -2.51162201e-02 -3.45063619e-02
      -4.37418893e-02 -9.17148888e-02 -9.90153998e-02 4.42034891e-03
      3.04768677e-03 8.57012067e-03 1.04535045e-02 9.24972817e-03
      -2.66821329e-02 -1.72130037e-02 -6.84723482e-02 -2.24392749e-02
      1.71812102e-02 6.10412192e-03 -3.54084037e-02 1.43561298e-02
      -2.42289044e-02 4.52079531e-03 -6.13375492e-02 -1.09158173e-01
      -1.06462590e-01 -4.55928296e-02 -1.05764391e-02 -1.86940897e-02
      -2.55700853e-02 1.89967416e-02 1.26286056e-02 -4.45647314e-02
      -5.17519601e-02 -9.75703299e-02 -6.03517238e-03 -2.28720997e-02
      4.71077077e-02 2.34197900e-02 -3.59211899e-02 -6.80310801e-02
      -1.78676117e-02 -7.00322390e-02 -6.32752329e-02 -3.35378200e-02
      1.38002019e-02 2.25424431e-02 -9.96814389e-03 3.18114161e-02
      -1.24028400e-02 -4.14710288e-04 -1.06950097e-01 -7.83871487e-02
      -4.22494374e-02 -2.50772536e-02 1.32543119e-02 -5.88590354e-02
      -5.65985938e-05 -4.95206006e-02 -7.27770030e-02 -7.00110197e-02
      -5.44882305e-02 -1.19240537e-01 1.81979139e-03 1.69497412e-02
      2.66215671e-02 4.59269471e-02 -2.86467653e-02 -5.50638922e-02
      -4.91592586e-02 -8.29452425e-02 -4.30240221e-02 -3.39296795e-02
      -4.27982807e-02 -2.92289723e-02 1.42599782e-02 -3.34422337e-03
      -1.88604705e-02 -2.37106550e-02 -1.23290479e-01 -2.07173228e-02
      -2.07319763e-02 -2.19511092e-02 1.52032478e-02 1.75982695e-02
      2.54662819e-02 3.53380777e-02 -1.92392282e-02 -7.18601942e-02
      -6.82431310e-02 2.42192149e-02 -4.10389341e-02 -7.24774450e-02
      -4.36707847e-02 5.04466647e-04 -3.46604958e-02 4.07284461e-02
      -6.71378821e-02 2.21768003e-02 1.26763135e-02 -2.51318011e-02
      -3.30761336e-02 -6.45958558e-02 -1.49281193e-02 3.14723141e-02
      -3.10092568e-02 -1.18862465e-01 -3.61826308e-02 -1.88157484e-02
      -4.02949601e-02 -2.28751432e-02 3.23692076e-02 2.17576660e-02
      3.47188711e-02 -4.08886112e-02 -9.73074287e-02 -4.79706824e-02
      -4.96239476e-02 -2.03627683e-02 -5.39295077e-02 2.46176198e-02
      -1.80792119e-02 9.63836908e-03 -5.47690094e-02 -9.28805619e-02
      -1.69055909e-02 2.96835527e-02 -1.35457620e-03 -1.39401369e-02
      -3.79997566e-02 -2.76785996e-02 3.91133241e-02 -2.06501298e-02
      -9.52855870e-02 -6.31316826e-02 2.61388323e-03 1.51643334e-02
      -5.35606779e-02 -4.54037562e-02 -5.47593869e-02 3.53809563e-03
      -3.51883098e-02 -6.95657134e-02 -6.36897758e-02 -9.22133029e-03
      2.10210849e-02 -4.46179211e-02 1.16469916e-02 1.70423128e-02
      3.00837643e-02 -1.31879924e-02 -9.24760625e-02 -1.06353596e-01
      -3.72176357e-02 -3.41316946e-02 -6.88605309e-02 -6.64959997e-02
      -4.45076339e-02 2.71121282e-02 -4.78932122e-03 -8.43930840e-02
      -1.08082481e-01 -2.89559383e-02 -2.37783999e-03 1.81702711e-02
      2.95618288e-02 -4.36282419e-02 8.08957070e-02 4.49757315e-02
      -1.12670377e-01 -9.81689990e-02 -8.34926069e-02 -1.44788213e-02
      -1.39343236e-02 -2.53535621e-02 3.35164182e-02 9.34057906e-02
      1.56746879e-02 -9.88272354e-02 -4.94124778e-02 -2.24539754e-03
      -2.80131176e-02 -5.17402366e-02 -7.10281581e-02 -6.15510829e-02
      3.60272788e-02 9.44006592e-02 -7.77840391e-02 -2.30924264e-02
      -1.19083384e-02 -3.20788696e-02 -4.81973402e-02 -1.05179049e-01
      -2.64038071e-02 7.32966065e-02 1.37783244e-01 -1.13565683e-01
      -3.58552858e-02 -5.69948666e-02 -2.88982373e-02 -3.97477709e-02
      -5.06125949e-02 -2.02606358e-02 6.92182109e-02 5.74170798e-02
      -1.36650279e-01 1.11806067e-03 9.90181323e-03 -5.17419912e-02
      -8.96401238e-03 3.92052457e-02 -4.57829162e-02 8.22107270e-02
      -7.72897676e-02 -1.06910884e-01 -1.24748021e-01 2.16629934e-02
      1.89149939e-02 8.10448527e-02 7.11365268e-02 3.94863337e-02
      4.83294725e-02 -1.04991361e-01 -7.66913220e-02 -1.01217339e-02
      9.84628797e-02 9.70953703e-03 3.05483807e-02 1.22373831e-02
      3.38909738e-02 -3.84879448e-02 -6.70306161e-02 -9.83804688e-02
      -1.80762291e-01 4.43567820e-02 2.45721312e-03 6.54611811e-02
      1.20505370e-01 6.40049055e-02 4.23235334e-02 -6.50740862e-02
      -1.06924340e-01 -1.17209025e-01 5.97445555e-02 6.39137030e-02
      6.66751117e-02 5.17857857e-02 1.19060099e-01 2.69385632e-02
      -5.07829674e-02 -1.18449576e-01 2.52003223e-02 6.51044548e-02
      -1.08823255e-02 7.74636269e-02 7.01276436e-02 6.36395067e-02
      -4.89635989e-02 -6.20779730e-02 -1.33706599e-01 -6.90656453e-02
      3.52038518e-02 1.72084849e-02 4.44087312e-02 8.91619921e-02
      5.05182855e-02 -6.42202571e-02 2.35390533e-02 -6.99464530e-02
      -4.59698811e-02 3.58774550e-02 4.05702554e-02 3.62059250e-02
      5.92747927e-02 7.89254531e-02 6.50436953e-02 1.56988036e-02
      -1.05615817e-01 -6.14221431e-02 -4.64074090e-02 8.42184294e-03
      -2.46110428e-02 5.75751066e-02 -4.94126836e-03 1.69870686e-02
      -2.03780532e-02 -3.46105769e-02 -1.30099561e-02 3.09614856e-02
      4.25528996e-02 1.93979107e-02 8.10994394e-03 -4.75831470e-03
      -2.20900159e-02 4.36582007e-02 2.87026800e-02 -9.63211933e-04
      4.82647195e-02 3.24012749e-02 1.87262446e-02 3.73834148e-02
      -2.44643632e-03 1.96928140e-02 1.03134215e-02 -1.42462030e-01
      -7.37839267e-02 -1.03923306e-01 -4.62290235e-02 -9.53130075e-04
      -1.33661097e-02 1.58005934e-02 1.39903426e-02 1.41017986e-02
      -4.59012128e-02 -2.13369243e-02 1.98463667e-02 -1.97237786e-02
      -7.83604532e-02 -3.52891907e-02 4.20754142e-02 1.08842090e-01
      8.82411189e-03 1.51643492e-02 6.96408888e-03 6.82976618e-02
      -2.20756815e-03 -6.20154776e-02 -2.62993816e-02 2.39384715e-02
      2.57458668e-02 -1.83860958e-02 -1.39431003e-03 4.22771685e-02
      6.06346615e-02 2.49841455e-02 -6.83049187e-02 2.29218621e-02
      2.35408582e-02 3.15168835e-02 -4.85714376e-02 -1.23878531e-02
      -3.12543251e-02 2.13303957e-02 -1.24886120e-02 -1.11180425e-01
      -7.49151111e-02 6.77483901e-03 9.62094516e-02 -4.24797460e-02
      -4.97582890e-02 1.16923125e-02 -5.13146538e-03 2.33064257e-02
      -3.44086103e-02 -2.50924528e-02 -6.74365694e-03 2.35159956e-02
      -2.20005419e-02 -6.28471002e-02 -1.13384929e-02 5.20048514e-02
      4.01400104e-02 -4.23252136e-02 5.18398872e-03 -2.13382188e-02
      5.33583239e-02 2.87140384e-02 -4.65686247e-02 -2.58393306e-02
      1.59379356e-02 3.55385356e-02 -4.11459543e-02 -1.90147907e-02
      -3.88968773e-02 6.28874004e-02 -6.76566288e-02 -9.65196937e-02
      -8.91666710e-02 2.65008467e-03 1.66611858e-02 -1.67249851e-02
      -6.80817366e-02 -4.24859375e-02 2.57788543e-02 2.52498258e-02
      -1.40055432e-03 -5.21021113e-02 -1.28196906e-02 -8.58330447e-03
      -7.01736733e-02 -7.85704926e-02 -9.10430178e-02 2.60279421e-02
      4.14695181e-02 -6.82349280e-02 -6.13125823e-02 -2.84404606e-02
      -1.13913394e-03 -4.91807014e-02 -2.90587302e-02 -4.45982479e-02
      1.00560047e-01 3.28088272e-03 -9.28144529e-02 -5.18438630e-02
      -7.88469687e-02 -4.29079373e-04 -3.41957733e-02 1.06460452e-02
      7.18280394e-03 6.03514314e-02 8.47243611e-03 -1.03859706e-02
      -7.71343037e-02 -1.86890736e-02 3.69923003e-02 -7.09459484e-02
      -6.94734752e-02 -6.08115084e-02 -3.98820713e-02 -5.34840934e-02
      -3.68054546e-02 -6.83401302e-02 -3.84202637e-02 9.03393924e-02
      -4.92691100e-02 -6.15111366e-02 -7.89784119e-02 -1.33460909e-02
      5.11845574e-02 -5.68445884e-02 1.26190353e-02 -3.06050368e-02
      2.29556579e-03 -4.88337800e-02 9.02391598e-03 -5.85250964e-04
      3.99191864e-02 3.41394320e-02 -1.19880430e-01 -1.17519079e-02
      3.99814313e-03 -1.82779171e-02 -2.62094159e-02 5.54164723e-02
      3.77231576e-02 4.11504135e-02 -9.10803899e-02 -4.47221138e-02
      -5.25669148e-03 1.73022656e-03 6.76101819e-02 -5.58668301e-02
      -1.17364280e-01 -7.87326694e-02 -1.27952024e-02 1.60374679e-02
      -7.50744492e-02 -2.54423991e-02 3.18899378e-02 -8.95974319e-03
      -4.03829813e-02 -7.47942552e-02 1.77182294e-02 3.82222384e-02
      4.30284142e-02 -5.19352593e-02 -1.46616533e-01 -9.16302055e-02
      -1.72415003e-02 9.48384628e-02 3.88233922e-02 3.47165503e-02
      -5.20779612e-03 6.67930627e-03 -1.00451723e-01 -1.01620600e-01
      1.05152344e-02 8.99619535e-02 1.04979791e-01 4.07596752e-02
      4.42462713e-02 -6.75935880e-04 8.21513310e-02 4.46949378e-02
      -5.32099158e-02 -9.94287580e-02 -2.80222613e-02 3.24063040e-02
      -1.13251666e-02 9.14675072e-02 -2.71989778e-02 8.66871327e-03
      3.69280912e-02 -3.09630670e-02 -6.81971852e-03 6.74404129e-02
      6.05856292e-02 4.90320334e-03 8.08636844e-02 1.05393250e-02
      1.09168231e-01 2.94691380e-02 -8.44120309e-02 -4.94612008e-02
      5.63498102e-02 4.28647846e-02 -9.20102093e-03 3.24432403e-02
      1.13138899e-01 3.35947946e-02 -4.43560332e-02 -7.54694790e-02
      -1.56593844e-01 -7.92979151e-02 -1.98592432e-02 1.29198888e-03
      -2.62993593e-02 1.01093493e-01 9.86133069e-02 7.29455948e-02
      -8.72545242e-02 -1.00149490e-01 2.30348725e-02 5.75096533e-02
      -1.56209935e-02 7.33466968e-02 1.64365843e-01 -9.04340530e-04
      -4.46650572e-02 -9.44004804e-02 -1.49014428e-01 -1.07627235e-01
      1.82161853e-02 -3.59764299e-03 8.78511369e-02 1.48573324e-01
      1.03792101e-02 -1.12085573e-01 -4.29233797e-02 -1.05044380e-01
      -3.09913754e-02 1.67581700e-02 3.33577424e-04 1.95468012e-02
      6.38492852e-02 1.47232441e-02 -7.87654966e-02 -4.94384877e-02
      -2.86123529e-02 4.34283689e-02 -3.99699733e-02 -5.38300872e-02
      4.57754955e-02 5.23765348e-02 1.81752834e-02 -1.04348309e-01
      -4.95760180e-02 -5.91337942e-02 -6.00048900e-03 2.55348142e-02
      3.53855640e-02 8.73275697e-02 1.05840430e-01 4.44391593e-02
      -7.00213909e-02 -1.10273756e-01 1.55546805e-02 3.88758034e-02
      5.65265417e-02 2.14636605e-02 2.90376111e-03 4.80961353e-02
      -2.07613856e-02 -6.12498671e-02 1.03573883e-02 5.55641726e-02
      8.08869898e-02 -6.72066137e-02 -6.80853352e-02 1.04973149e-02
      8.90622512e-02 1.96459275e-02 -9.30897892e-03 5.00292107e-02
      5.36312759e-02 1.00930005e-01 -2.85637639e-02 -1.13986442e-02
      -1.07848831e-02 2.28257384e-02 -2.22860053e-02 -7.79704899e-02
      -1.21916264e-01 3.11261937e-02 8.88412353e-03 4.32575457e-02
      1.05647817e-02 -6.45315126e-02 -3.58338878e-02 6.45971484e-03
      -3.57480757e-02 -5.72401583e-02 4.98111174e-02 2.88457032e-02
      -4.43943143e-02 -6.03719018e-02 -1.74266353e-01 2.04546773e-03
      1.60549302e-02 5.20333201e-02 -4.22625355e-02 4.28254493e-02
      5.73740788e-02 -1.37342392e-02 1.15716625e-02 -1.90116297e-02
      -1.08877895e-02 -6.47963118e-03 5.80380633e-02 -2.29835026e-02
      4.37307842e-02 -4.62650461e-03 3.05729900e-02 -3.26828286e-02
      -6.13371804e-02 -5.15036024e-02 -1.22445226e-02 -1.85755715e-02
      -7.33723342e-02 4.54982184e-03 1.24206003e-02 -3.56292352e-02
      -4.03548703e-02 -1.84311673e-01 -6.37061670e-02 -6.07565455e-02
      -6.73786253e-02 -4.33684774e-02 4.15170975e-02 -4.49936278e-02
      2.32308712e-02 -2.43071117e-03 -5.31671122e-02 -7.84743279e-02
      -3.23171578e-02 -2.25290209e-02 -4.96842638e-02 4.13499214e-02
      5.49981520e-02 2.25380994e-02 -9.04506892e-02 -6.54847175e-02
      -2.38140244e-02 -2.12604571e-02 -4.52488894e-03 -1.95287410e-02
      3.27767804e-02 1.37371138e-01 -5.94488904e-03 -1.91919953e-02
      -5.05673215e-02 -6.70161471e-03 -1.08013757e-01 -1.15915164e-01
      -2.89648138e-02 1.35194995e-02 -9.91029013e-03 -1.17853396e-02
      -1.39346212e-01 -5.98656572e-02 -3.65759954e-02 -2.23871414e-02
      -2.10562814e-02 -2.63584163e-02 1.80457197e-02 5.37625067e-02
      2.04008482e-02 -7.08022863e-02 -5.88544470e-04 3.37247103e-02
      -2.04043332e-02 2.00215727e-02 3.13744284e-02 4.20052893e-02
      7.46120512e-02 1.53231639e-02 -2.26514172e-02 -1.87553968e-02
      2.95891464e-02 3.19943763e-02 3.68888862e-02 5.42413853e-02
      1.45794097e-02 -2.53003761e-02 2.14567631e-02 -4.22358625e-02
      8.62327311e-03 5.96779287e-02 -1.60163958e-02 3.42562906e-02
      -3.32840602e-03 -1.79183129e-02 1.74538977e-02 7.30142742e-02
      1.30128954e-02 -4.86912765e-03 -2.48101596e-02 1.09976670e-02
      4.63246135e-03 1.47090815e-02 -6.63301498e-02 -7.50516132e-02
      -2.11233944e-02 -7.73645798e-03 -2.40314985e-03 4.10235114e-02
      1.33606922e-02 5.01099452e-02 -1.58388168e-02 -9.10307169e-02
      -3.07801776e-02 -1.60343405e-02 8.44215136e-03 9.53264683e-02
      1.77621283e-02 -1.67861581e-02 4.22201939e-02 -5.62138632e-02
      -5.36901429e-02 4.22232822e-02 -1.87643245e-02 -5.81405638e-03
      9.29114223e-02 8.14840421e-02 -2.07639672e-02 -1.92273920e-03
      -4.61611189e-02 -5.93003770e-03 -3.71128805e-02 1.72828753e-02
      3.35978717e-02 3.94086204e-02 7.03126192e-04 -6.42840266e-02
      -1.20794605e-02 -5.03018685e-02 8.10919888e-03 -2.98923403e-02
      -3.98182645e-02 -9.49604288e-02 3.11743710e-02 8.22266564e-02
      8.82697999e-02 1.02222696e-01 -2.72931326e-02 -3.07545103e-02
      4.21538837e-02 -4.78690164e-03 1.57080088e-02 9.15395468e-02
      1.39749184e-01 5.78328185e-02 9.82935354e-02 4.22828645e-03
      -9.85362902e-02 -9.17075053e-02 -3.04466356e-02 -2.40691621e-02
      5.40973134e-02 1.04720801e-01 1.69377048e-02 4.38996889e-02
      -1.63487978e-02 -1.72069930e-02 -2.91501507e-02 -1.82387643e-02
      -7.97681212e-02 8.69462863e-02 1.17099769e-01 -3.30615416e-02
      -3.14506441e-02 -6.53371681e-03 -4.53755930e-02 -6.62871450e-02
      -8.43874961e-02 -1.48362815e-01 -7.02903932e-03 4.91961092e-03
      5.46900183e-02 1.94221158e-02 5.77664562e-02 5.11644669e-02
      -2.05850992e-02 2.66212244e-02 3.78271751e-02 6.14834838e-02
      9.72846374e-02 9.58252177e-02 -2.63428073e-02 -1.60339978e-02
      8.76642391e-02 5.10831662e-02 3.15468125e-02 2.32991707e-02
      -1.59831382e-02 3.63311991e-02 -5.51118292e-02 -2.45512594e-02
      -1.35290306e-02 1.78415012e-02 -2.64061894e-02 -8.08126200e-03
      -4.19467390e-02 -6.11979291e-02 -3.16213705e-02 6.98730648e-02
      3.38029601e-02 2.09591351e-02 7.31186522e-03 -2.84600221e-02
      -4.86295596e-02 -3.35735194e-02 -1.11898839e-01 -3.29772569e-02
      4.27018031e-02 -2.11742371e-02 -9.44897346e-03 5.61820827e-02
      4.12531234e-02 8.28725249e-02 8.57618265e-03 -1.10776741e-02
      2.74333041e-02 1.36097828e-02 8.87095928e-03 -7.63096064e-02
      3.73438038e-02 5.17061427e-02 -3.70519944e-02 -6.16646223e-02
      -4.96542342e-02 4.16942388e-02 8.50882474e-03 1.92411635e-02
      -4.28724661e-03 -2.86476165e-02 -7.89640993e-02 -7.07739312e-03
      -1.92285720e-02 -5.02874702e-02 -3.89431380e-02 -1.10041827e-01
      -1.00702353e-01 -8.09976608e-02 -1.64718200e-02 7.67633915e-02
      3.51642519e-02 2.31664777e-02 6.15633540e-02 2.38811467e-02
      -1.85971204e-02 -1.36795091e-02 -6.31598905e-02 2.75433622e-02
      3.87708396e-02 -2.69676093e-02 -3.67343165e-02 -6.14672527e-02
      5.20150084e-03 -2.37231515e-02 -4.26419452e-03 4.94559146e-02
      6.79385439e-02 -5.77844493e-03 2.48403586e-02 5.21675572e-02
      4.43811789e-02 2.94654481e-02 -1.34197533e-01 -9.28755626e-02
      -5.22759259e-02 1.79022364e-02 3.15983482e-02 -5.96312396e-02
      2.84051951e-02 -9.87832621e-03 -2.18906105e-04 -9.20567587e-02
      -3.44027616e-02 4.09843540e-03 2.41994187e-02 4.05231379e-02
      -5.21484688e-02 8.19217190e-02 -8.63638893e-03 -5.27167432e-02
      -2.75316350e-02 -2.16224287e-02 6.58306628e-02 4.50865664e-02
      -1.59221282e-03 -4.79046116e-03 -1.70226637e-02 2.31495555e-02
      3.94316241e-02 1.20394453e-02 1.40479365e-02 1.06074363e-02
      4.36113141e-02 7.40915835e-02 6.43012151e-02 -2.28030942e-02
      3.82010750e-02 6.78169504e-02 -9.04912427e-02 -2.72956938e-02
      -2.36495771e-02 -6.22997759e-03 -1.30128134e-02 -2.88518406e-02
      8.25642496e-02 -9.12023894e-03 -9.19898599e-02 -1.14028208e-01
      -7.00637400e-02 -5.19523844e-02 -3.19638848e-02 8.59371759e-03
      4.16229293e-02 4.32906710e-02 7.61692831e-03 6.41233381e-03
      2.14705579e-02 8.49303752e-02 9.16756596e-03 -1.94456857e-02
      7.30914325e-02 7.22659007e-02 -1.73953064e-02 3.66200209e-02
      5.30209951e-02 6.38395026e-02 3.34327086e-03 -2.42585670e-02
      -3.42523716e-02 -5.72459493e-03 8.52692127e-03 -1.09668598e-02
      3.06434892e-02 8.85950774e-02 -4.81690355e-02 -6.32249638e-02
      -9.03381109e-02 -9.42723304e-02 4.13697511e-02 3.63293216e-02
      -3.87401097e-02 1.30534973e-02 2.29450725e-02 -4.73152660e-02
      -7.34691322e-02 -1.45273298e-01 -1.11591905e-01 -2.35998575e-02
      -2.21308344e-03 -6.88258559e-02 7.68920705e-02 1.18427381e-01
      -3.53301167e-02 -2.86779683e-02 -3.69591787e-02 3.75920795e-02
      -9.63988807e-03 5.69833368e-02 1.07868956e-02 -5.06217517e-02
      -2.70118117e-02 -2.13923100e-02 1.61690917e-02 -2.81094871e-02
      6.19811863e-02 1.27816824e-02 2.81516854e-02 -8.58017653e-02
      -4.64522839e-02 -2.73589301e-03 -9.53712687e-03 -1.15160095e-02
      -4.33879308e-02 2.48804018e-02 6.35209456e-02 4.41765524e-02
      -4.23900187e-02 -4.06592004e-02 -6.40750974e-02 -8.46771337e-03
      1.64438300e-02 -2.96616144e-02 6.99219480e-02 3.65324207e-02
      7.03000650e-02 -2.41888817e-02 -7.31564835e-02 -8.52184966e-02
      8.94729495e-02 8.55344832e-02 5.21497689e-02 7.63424905e-03
      -3.03647984e-02 -3.29342969e-02 -6.96840882e-02 1.15842178e-01
      9.48568881e-02 6.17338531e-02 -5.22340909e-02 -4.12983559e-02
      -5.20664267e-02 -6.72519952e-02 -1.08705044e-01 -7.77629241e-02
      6.26714081e-02 4.72987033e-02 6.92224875e-02 4.83412072e-02
      2.10554674e-02 8.45826939e-02 -6.71928097e-03 -1.75875761e-02
      5.98459654e-02 9.42622647e-02 3.21810581e-02 8.77378136e-02
      -7.38567440e-03 -3.09130438e-02 -6.27692863e-02 -1.07251354e-01
      -1.19325891e-01 1.39391664e-02 1.09510720e-01 1.65427327e-02
      7.07010850e-02 -1.94798894e-02 -2.79971268e-02 2.63095810e-03
      -3.57132666e-02 -5.11041246e-02 -1.75259952e-02 -1.21641590e-03
      2.04841141e-02 1.25515550e-01 7.18308166e-02 4.06806311e-03
      -3.23836468e-02 -4.64832932e-02 -1.50676994e-02 -2.11539343e-02
      -5.56470715e-02 5.33362094e-04 1.53681859e-01 3.83225195e-02
      1.46252327e-02 -4.54237275e-02 -7.93488026e-02 -8.95887092e-02
      3.42825316e-02 8.86544809e-02 3.36916782e-02 1.57779485e-01
      1.05704390e-01 1.30620599e-02 -4.08203378e-02 -6.34766966e-02
      -9.33289975e-02 3.08588129e-02 8.66867155e-02 5.35064526e-02
      3.66125698e-03 -4.16969843e-02 3.06098387e-02 -2.50560567e-02
      -6.45086691e-02 -2.02612132e-02 1.36897201e-02 -4.83974107e-02
      3.82531900e-03 -7.48919919e-02 -8.42858404e-02 -2.34367270e-02
      -5.55385947e-02 2.09305007e-02 4.75071408e-02 1.01593629e-01
      4.62402515e-02 1.28530301e-02 2.00590417e-02 -1.91453248e-02
      3.81386955e-03 -4.98784855e-02 -4.26805057e-02 -2.32585557e-02
      6.00304306e-02 1.04263509e-02 2.36953013e-02 -4.76938896e-02
      -5.88032715e-02 2.70060617e-02 2.07437854e-02 3.24233361e-02
      3.69702429e-02 3.53784896e-02 4.95506115e-02 1.51919136e-02
      -7.77337402e-02 -3.69744338e-02 4.60354276e-02 -5.25950938e-02
      4.31616828e-02 2.16707010e-02 6.19028471e-02 1.45704402e-02
      9.21348389e-03 -6.06147125e-02 -4.38458212e-02 3.73900458e-02
      -6.88835559e-03 2.19115894e-02 -2.69695930e-02 3.61778252e-02
      -1.78931318e-02 -8.62494204e-03 -3.91206332e-02 -8.66479352e-02
      5.79171330e-02 1.16618769e-02 4.29467577e-03 5.44247963e-02
      6.34571910e-03 5.93554638e-02 9.37684402e-02 -5.49681038e-02
      -9.83515754e-02 -6.27242215e-03 1.89826060e-02 2.33658329e-02
      2.18600873e-02 -4.57259491e-02 1.21222474e-02 -4.94231880e-02
      -6.61345124e-02 -6.41870964e-03 -2.84856018e-02 2.78658122e-02
      5.66626666e-03 -3.78346033e-02 2.07122397e-02 1.09584229e-02
      -2.10500974e-02 -5.31597696e-02 -6.62722066e-02 -3.68028693e-02
      1.96907967e-02 1.92466993e-02 1.95928067e-02 1.02467928e-02
      3.70766297e-02 1.69552583e-02 -4.71320786e-02 -6.07832409e-02
      -4.34539095e-02 6.27720878e-02 1.22714497e-01 1.70576144e-02
      -3.26652303e-02 -3.65351923e-02 -6.40085638e-02 2.51096096e-02
      -1.10110588e-01 -2.84308139e-02 7.38996491e-02 9.80461389e-02
      -3.29583250e-02 1.66488555e-03 4.50549182e-03 -3.44124362e-02
      -3.60839590e-02 -9.75847468e-02 -9.34562832e-02 -2.38886047e-02
      -2.91798776e-03 3.06476504e-02 -2.83078477e-02 5.96634299e-02
      3.76462676e-02 9.10926145e-03 -5.15535995e-02 -1.13243714e-01
      -7.45327100e-02 -4.50994112e-02 2.17039026e-02 -2.62405761e-02
      1.10201001e-01 1.38424575e-01 3.38159874e-02 -8.43617916e-02
      -1.09014548e-01 3.23404074e-02 3.79658341e-02 2.63401656e-03
      -3.41001712e-02 6.73744222e-03 2.06753276e-02 1.43808695e-02
      -5.21627255e-02 -2.99058501e-02 1.61019564e-02 -4.25675996e-02
      -1.60592273e-02 -9.19066966e-02 7.70747513e-02 6.03124611e-02
      3.34113836e-02 3.77988555e-02 4.86802682e-02 3.44875120e-02
      1.83489099e-02 4.66409884e-03 -2.01594271e-02 1.05153653e-03
      -2.38012224e-02 5.37258759e-03 1.22595774e-02 1.64995417e-02
      7.01456964e-02 3.22304331e-02 5.28930835e-02 3.67360972e-02
      -3.99545580e-02 -2.01274287e-02 9.34141595e-03 -2.73214537e-03
      6.34905323e-02 4.84314524e-02 5.29492348e-02 -3.51462662e-02
      -7.36955255e-02 -6.82634041e-02 -4.12658229e-02 -8.18953104e-03
      -8.93863067e-02 3.43394326e-03 5.13106026e-02 3.25002037e-02
      -1.37894116e-02 2.92937718e-02 -7.79893175e-02 9.57915373e-03
      2.48858985e-02 5.56248091e-02 5.32127135e-02 7.76242986e-02
      -9.61109716e-03 6.79231202e-03 5.78929372e-02 5.74655011e-02
      2.39639338e-02 1.96632911e-02 1.29960757e-02 6.12604544e-02
      1.91890879e-03 -1.15046635e-01 -8.52326676e-02 4.43680733e-02
      5.63662238e-02 -3.10752969e-02 5.19745350e-02 -1.41443694e-02
      3.33251357e-02 2.03955546e-02 -1.70935635e-02 -2.04895809e-02
      2.96207592e-02 1.60621293e-02 4.47664606e-05 5.57074919e-02
      7.81654089e-04 2.94965710e-02 -7.79140890e-02 -1.14067122e-01
      -4.76830304e-02 -3.31587791e-02 -2.09952220e-02 1.63815226e-02
      7.56034777e-02 1.75933745e-02 4.54022884e-02 -4.79594246e-02
      -4.08360139e-02 -4.17398214e-02 3.54025550e-02 2.56823264e-02
      -2.06376947e-02 1.41774997e-01 3.99193764e-02 -4.66148518e-02
      -9.71458778e-02 -9.11569744e-02 -1.00953557e-01 2.73593068e-02
      9.05962810e-02 6.40350655e-02 5.75106330e-02 8.20037816e-03
      -1.49459671e-02 -2.37926226e-02 -1.30081512e-02 1.56912934e-02
      3.35887931e-02 -9.41959955e-03 4.85362522e-02 4.47919369e-02
      -1.97998192e-02 -2.38362383e-02 5.17288363e-03 -5.11302100e-03
      -3.98128331e-02 -2.38324655e-03 -1.97687675e-03 6.49628118e-02
      3.95096578e-02 -2.43325476e-02 -3.67885293e-03 -5.90840913e-02
      -2.35989653e-02 -5.63879833e-02 1.69055331e-02 2.82691643e-02
      3.42367776e-02 4.21933550e-03 -3.26095149e-02 3.12170126e-02
      5.80330230e-02 3.09824087e-02 8.76653381e-03 7.78137997e-04
      1.02712605e-02 3.16415727e-02 5.52972639e-03 -6.11715242e-02
      -5.16598038e-02 -2.14406569e-03 3.02740689e-02 -6.72144741e-02
      -4.71124314e-02 -6.80009648e-02 5.53554632e-02 1.26581397e-02
      5.68803959e-03 -7.77966306e-02 4.41407412e-02 1.80856735e-02
      -3.78466919e-02 -3.60054448e-02 3.31255211e-03 2.56283395e-02
      -3.44273075e-03 -6.14037476e-02 2.98589747e-02 2.28328798e-02
      -3.75796147e-02 5.27818594e-03 1.17060207e-02 1.71182565e-02
      2.46020705e-02 -5.89732304e-02 -8.59021693e-02 -9.01004672e-03
      1.68889873e-02 1.06411511e-02 1.15370401e-03 -3.24663543e-03
      1.38246198e-03 -3.46914418e-02 7.24043697e-03 -4.84329648e-02
      -8.67988616e-02 -4.72720973e-02 -3.76088805e-02 -3.81344818e-02
      -5.43606952e-02 6.64163288e-03 4.49673552e-03 6.55888990e-02
      -6.23216964e-02 -5.90594895e-02 -9.81760994e-02 -5.54879010e-02
      -3.83073166e-02 4.94478829e-03 1.56782568e-02 3.31309661e-02
      -9.38154906e-02 -6.40188158e-02 -2.33711284e-02 5.51511683e-02
      6.73873276e-02 6.30597258e-03 -7.86414836e-03 -4.17219736e-02
      -8.28042030e-02 -3.43484692e-02 -1.01454005e-01 -1.41603649e-02
      6.16319254e-02 7.72919133e-02 8.48132186e-03 4.45770398e-02
      -4.62860893e-03 4.26721666e-03 -2.39864923e-03 -7.05449209e-02
      1.43621285e-02 2.69766944e-03 -9.42141470e-03 2.48393938e-02
      -3.34790605e-03 -1.01271905e-02 3.11754011e-02 -6.86048856e-03
      -1.59609124e-01 -3.21285753e-03 3.35966311e-02 4.99046221e-02
      1.69041883e-02 7.20242132e-03 2.93955114e-02 6.90494031e-02
      -2.17081495e-02 -7.86657855e-02 -6.06617033e-02 7.63937598e-03
      2.84532513e-02 1.08925784e-02 -6.90093404e-03 -1.02039415e-03
      2.75445674e-02 -5.22363447e-02 -4.61313017e-02 -5.28406650e-02
      -5.53594762e-03 -8.93057883e-03 -4.89961989e-02 -6.72546104e-02
      4.05320041e-02 4.22803536e-02 3.26955058e-02 -1.43429562e-01
      -4.14297655e-02 6.06754282e-03 4.63269874e-02 -1.89156663e-02
      -2.49249171e-02 1.09498994e-02 9.16783810e-02 2.66776960e-02
      -1.04287311e-01 -5.89830950e-02 -7.92574212e-02 1.96977351e-02
      -1.67535357e-02 -3.07890102e-02 1.38051361e-01 3.77145000e-02
      -9.66278464e-03 5.18289879e-02 9.85224992e-02 9.25974622e-02
      6.61494210e-02 -2.98420954e-02 -4.40768972e-02 -2.67621200e-03
      -2.62276102e-02 1.33206798e-02 3.14159505e-03 5.34208268e-02
      8.66012201e-02 8.49587992e-02 5.58462553e-02 8.25696215e-02
      1.85026054e-03 4.48575662e-03 7.18624704e-03 6.92484807e-03
      7.75143132e-02 -3.62118334e-03 3.40144746e-02 -4.37201709e-02
      -6.81792423e-02 -9.00762528e-02 -4.75560166e-02 -6.18434027e-02
      -3.49779725e-02 8.94501358e-02 9.28775296e-02 4.90939058e-02
      1.98184140e-02 -5.65408869e-03 -7.10927993e-02 -1.05206572e-01
      1.20883763e-01 4.58267815e-02 1.61542967e-02 -2.59595904e-02
      3.39517593e-02 3.05703264e-02 5.56146167e-02 -5.56832366e-03
      -2.08380017e-02 7.26673380e-02 1.31203225e-02 2.86364481e-02
      -7.42416233e-02 -5.13302498e-02 1.37579488e-02 3.54146361e-02
      9.63959750e-03 7.21940473e-02 -2.35465746e-02 -3.98480520e-02
      3.09109520e-02 4.17533331e-02 1.29554654e-02 6.73789456e-02
      7.00490624e-02 -1.85919497e-02 -5.59867024e-02 -2.26620436e-02
      3.95544395e-02 3.13446447e-02 -1.23118768e-02 -3.09170932e-02
      -3.13794278e-02 4.06180024e-02 -3.11237033e-02 -1.92317721e-02
      6.00065058e-03 3.84025113e-03 -1.53141720e-02 1.02749299e-02
      -1.17891030e-02 3.66338938e-02 2.99639218e-02 1.08238226e-02
      3.38444822e-02 -1.69489197e-02 2.17457507e-02 -7.25024492e-02
      3.31420340e-02 5.36780134e-02 -2.32713986e-02 -4.48251404e-02
      -3.57363261e-02 9.32318792e-02 -4.76825535e-02 6.60795793e-02
      2.38632839e-02 2.89706122e-02 -3.39545636e-03 5.08393394e-03
      -1.04362320e-03 -6.97571710e-02 -9.10862386e-02 -2.51463298e-02
      4.30261642e-02 2.40817126e-02 3.41003910e-02 5.35841770e-02
      -3.81877013e-02 -2.51943134e-02 -2.30602883e-02 -1.79627386e-04
      2.83638369e-02 -3.71987149e-02 -5.33071384e-02 -1.88777398e-03
      1.55633956e-03 -5.11470623e-02 -8.26824605e-02 -3.12740058e-02
      6.35324568e-02 5.34918085e-02 8.82827211e-03 -6.22281395e-02
      -2.74007879e-02 8.44610110e-03 -3.34543511e-02 -4.81909811e-02
      1.09571340e-02 6.13697283e-02 1.62692759e-02 -4.46235277e-02
      -7.96131510e-03 -7.02557620e-03 8.36289451e-02 -3.71249542e-02
      -6.74161538e-02 -7.11272564e-03 1.42892161e-02 1.32427048e-02
      -8.10021535e-03 -3.84296142e-02 -2.73254681e-02 4.99732755e-02
      -3.75545993e-02 -4.83595617e-02 -6.86757360e-03 2.95007024e-02
      4.43652868e-02 -9.63336006e-02 -8.88659284e-02 -5.34496121e-02
      -1.81409605e-02 -2.88028158e-02 -1.88041329e-02 2.02740761e-04
      3.25901248e-02 1.49846047e-01 -6.23685457e-02 -6.20145723e-02
      -5.89156151e-02 -2.95323264e-02 -1.41339432e-02 3.78002238e-04
      -2.93121804e-02 5.69766350e-02 1.19450856e-02 -4.25001420e-02
      -1.23135090e-01 -8.00954774e-02 8.17794129e-02 8.21418036e-03
      1.48976017e-02 -3.91718745e-02 2.07263287e-02 1.98598802e-02
      -6.78156987e-02 -1.49701983e-01 -7.17563704e-02 6.80185333e-02
      3.51860039e-02 5.00206463e-02 1.33118033e-02 5.04428782e-02
      6.21165335e-02 -4.23821472e-02 -3.24150622e-02 -5.56773059e-02
      -1.29492814e-03 -5.61388629e-03 -4.90305014e-02 -8.40056464e-02
      1.06095744e-03 1.48081863e-02 -7.14567900e-02 -6.81224987e-02
      -2.30596811e-02 5.28975502e-02 2.33543143e-02 -1.94049720e-02
      9.95869096e-03 5.70060126e-02 7.16481954e-02 -7.90316984e-02
      -9.87888873e-02 -6.57237917e-02 5.71526065e-02 -3.20982747e-02
      -1.81083828e-02 2.49421820e-02 2.09727734e-02 1.66257061e-02
      -8.47513080e-02 -1.03378691e-01 -7.21640931e-03 3.07399910e-02
      -4.16917726e-02 1.03764217e-02 1.69028752e-02 6.37747953e-03
      -5.12787402e-02 -1.10888429e-01 -5.90441301e-02 -3.02214385e-03
      7.75744319e-02 1.83209535e-02 -9.26540941e-02 -2.03843843e-02
      4.50449251e-02 -2.83300821e-02 -1.24937728e-01 -5.82626350e-02
      -1.53101636e-02 5.11395670e-02 6.77540759e-03 -8.10302347e-02
      1.81813445e-02 2.28679683e-02 -8.57883785e-03 -7.55107701e-02
      -1.05273560e-01 7.04433862e-03 1.08239241e-02 -6.35514315e-03
      -8.69998485e-02 -7.28936540e-03 3.48885357e-03 3.01377103e-02
      -5.58506362e-02 -2.29494274e-02 -1.13529377e-02 1.40168052e-02
      -1.30261770e-02 -5.21501116e-02 -9.98721458e-03 2.56373882e-02</_></support_vectors>
  <uncompressed_sv_total>67</uncompressed_sv_total>
  <uncompressed_support_vectors>
    <_>
      2.20872059e-01 1.32835373e-01 1.20241575e-01 9.48478729e-02
      9.33933556e-02 2.11855412e-01 1.85440078e-01 1.22182481e-01
      1.63447559e-01 2.23532677e-01 1.07170269e-01 5.43075390e-02
      5.83995692e-02 1.25117764e-01 2.09808290e-01 1.52536809e-01
      1.49437115e-01 2.23532677e-01 1.85003653e-01 1.77312419e-01
      1.65601507e-01 2.23532677e-01 1.71011850e-01 1.61353365e-01
      1.42931461e-01 1.62360236e-01 1.86107039e-01 2.23532677e-01
      1.38097078e-01 6.72609806e-02 1.42747864e-01 2.23532677e-01
      1.55487880e-01 1.16760343e-01 2.09162220e-01 2.23532677e-01
      2.27663115e-01 9.87598523e-02 8.38232487e-02 5.95282130e-02
      1.16093196e-01 9.64239091e-02 8.85678083e-02 1.24405012e-01
      2.06251979e-01 2.16495529e-01 1.82498306e-01 1.41955748e-01
      1.07723385e-01 8.06956440e-02 1.12840839e-01 1.28404126e-01
      9.76618007e-02 1.86432600e-01 2.41547540e-01 1.49656832e-01
      1.06587857e-01 9.40866694e-02 2.41547540e-01 1.16617553e-01
      1.16187207e-01 1.95177183e-01 2.41547540e-01 2.41547540e-01
      2.16950104e-01 2.00566933e-01 1.14254080e-01 1.24043256e-01
      1.26031756e-01 2.35250562e-01 2.41547540e-01 2.41547540e-01
      1.78913832e-01 1.51122823e-01 1.03181556e-01 1.11982785e-01
      7.90052563e-02 1.11917853e-01 1.46866843e-01 8.99484828e-02
      1.29094958e-01 1.77303359e-01 1.31804138e-01 1.14588968e-01
      1.37343660e-01 2.01183483e-01 1.18536822e-01 2.16604233e-01
      1.32460386e-01 1.94876596e-01 2.16506958e-01 1.15677834e-01
      1.59100428e-01 1.29316971e-01 1.22776262e-01 1.57202899e-01
      2.16604233e-01 2.16604233e-01 2.16604233e-01 2.10401490e-01
      1.10429212e-01 2.16604233e-01 2.16604233e-01 2.16604233e-01
      1.68411493e-01 2.16604233e-01 1.49881855e-01 1.97855368e-01
      1.41909286e-01 1.03496432e-01 2.07854405e-01 1.17680281e-01
      2.10906491e-01 7.37253651e-02 1.82302997e-01 1.57721967e-01
      2.07209691e-01 1.82601646e-01 1.55135214e-01 2.25693181e-01
      1.09964259e-01 2.25693181e-01 1.32927880e-01 1.29569307e-01
      1.43956080e-01 1.78636625e-01 1.45517334e-01 1.68776959e-01
      2.25693181e-01 2.08558559e-01 2.11123616e-01 9.91251096e-02
      1.13905989e-01 1.36601448e-01 1.91750601e-01 1.47152901e-01
      2.25693181e-01 2.25693181e-01 1.45207077e-01 1.31614178e-01
      1.05390675e-01 1.20981224e-01 1.44642636e-01 1.57833144e-01
      1.35552615e-01 1.43982142e-01 1.56313479e-01 9.66544226e-02
      1.99518040e-01 9.74291861e-02 6.65743276e-02 1.25589967e-01
      1.48257211e-01 2.24305153e-01 1.69416741e-01 1.61984503e-01
      1.37060210e-01 1.83192953e-01 6.40060082e-02 1.70346096e-01
      2.12981761e-01 1.81591392e-01 1.90647632e-01 2.29129702e-01
      2.07926601e-01 1.27020940e-01 1.61157206e-01 9.43226367e-02
      8.44492316e-02 1.33497819e-01 1.21742398e-01 2.29129702e-01
      2.29129702e-01 2.29129702e-01 1.86744124e-01 2.29129702e-01
      7.77904391e-02 1.07390784e-01 2.25052014e-01 1.68309525e-01
      1.70645803e-01 1.27969742e-01 1.14111818e-01 9.63883176e-02
      1.52529165e-01 8.06609765e-02 1.86963454e-01 1.50379822e-01
      1.60305321e-01 1.47259057e-01 1.04848713e-01 1.31316602e-01
      9.24733654e-02 2.17291579e-01 1.36745363e-01 1.22459352e-01
      1.26605168e-01 1.63858712e-01 2.17291579e-01 2.17291579e-01
      2.12396353e-01 1.81894585e-01 2.14882270e-01 1.02742419e-01
      1.47010401e-01 2.17291579e-01 1.68743551e-01 1.73495933e-01
      1.71512231e-01 1.61780640e-01 1.73775241e-01 2.17291579e-01
      1.70836240e-01 1.66759327e-01 2.17291579e-01 2.01849312e-01
      1.46945432e-01 1.83506846e-01 1.50754243e-01 1.36537582e-01
      2.14272738e-01 1.01636663e-01 9.66617987e-02 9.81758684e-02
      1.09890185e-01 1.44847721e-01 2.10440159e-01 2.11952850e-01
      2.14272738e-01 2.14272738e-01 1.06911160e-01 1.68698609e-01
      1.13160655e-01 1.70103729e-01 1.20135136e-01 2.14272738e-01
      1.33734047e-01 1.79413304e-01 2.14272738e-01 1.16999336e-01
      1.46086052e-01 1.37452841e-01 1.53098151e-01 1.40028983e-01
      2.14272738e-01 2.14008391e-01 2.14272738e-01 2.14272738e-01
      9.13953930e-02 1.97801843e-01 1.18776970e-01 1.78460628e-01
      1.79931402e-01 2.94936270e-01 2.00491577e-01 1.06580324e-01
      8.84806067e-02 4.90954779e-02 7.60816261e-02 1.00384086e-01
      6.76838011e-02 2.94936270e-01 2.94936270e-01 7.47959614e-02
      7.92356804e-02 1.08024858e-01 2.56440286e-02 4.69910428e-02
      1.20514803e-01 2.64676034e-01 2.37690493e-01 2.94936270e-01
      2.94936270e-01 6.84779733e-02 3.64318900e-02 4.29502018e-02
      9.12545472e-02 9.05010998e-02 9.44639668e-02 2.94936270e-01
      2.94936270e-01 1.17299467e-01 4.15812731e-02 5.96953481e-02
      2.40822788e-02 5.52164875e-02 1.03425108e-01 1.98398799e-01
      2.53768146e-01 2.24881649e-01 6.26315624e-02 4.39244509e-02
      9.47606266e-02 1.85939986e-02 4.64257635e-02 1.26445889e-01
      2.53768146e-01 2.53768146e-01 1.68050557e-01 8.56917799e-02
      3.20114642e-02 5.49105629e-02 3.80354300e-02 1.26948163e-01
      2.53768146e-01 2.53768146e-01 2.53768146e-01 2.27290049e-01
      8.95681754e-02 4.97419201e-02 5.67337461e-02 7.91366585e-03
      2.66889930e-02 9.01190937e-02 2.53768146e-01 2.53768146e-01
      2.53768146e-01 1.98728561e-01 1.16443314e-01 8.26760754e-02
      5.23474179e-02 1.05372630e-01 2.53768146e-01 2.53768146e-01
      1.37213618e-01 6.19743206e-02 5.11044897e-02 2.74342727e-02
      4.42453176e-02 6.32201061e-02 2.36635074e-01 2.43201658e-01
      2.26608381e-01 1.33201167e-01 1.21343456e-01 1.43390268e-01
      7.53031522e-02 6.62414655e-02 6.91882148e-02 2.07301736e-01
      1.98344186e-01 1.00235365e-01 1.79077864e-01 2.43201658e-01
      1.16857000e-01 1.12926096e-01 1.03740580e-01 9.91818532e-02
      2.43201658e-01 2.43201658e-01 2.43201658e-01 2.19691440e-01
      2.43201658e-01 1.78141132e-01 1.33509070e-01 1.09463185e-01
      9.50847864e-02 2.43201658e-01 2.43201658e-01 1.64016098e-01
      1.87050015e-01 2.09135234e-01 1.88838765e-01 7.57823884e-02
      6.06809705e-02 5.25579862e-02 7.08079487e-02 1.82969704e-01
      1.77601576e-01 2.09049433e-01 2.24736258e-01 2.25567028e-01
      8.57934505e-02 4.12611254e-02 2.79867742e-02 7.03396872e-02
      1.70231760e-01 1.98103592e-01 2.25567028e-01 2.25567028e-01
      2.25567028e-01 1.28663614e-01 1.27505571e-01 5.94991446e-02
      9.18847099e-02 2.25567028e-01 2.25567028e-01 2.25567028e-01
      2.25567028e-01 2.25567028e-01 1.34087563e-01 9.81501341e-02
      4.78333682e-02 4.01997976e-02 1.96967021e-01 2.25567028e-01
      1.93540946e-01 2.23825261e-01 2.23815113e-01 1.01583034e-01
      7.62129724e-02 3.92188169e-02 4.04307134e-02 7.25856498e-02
      9.29874554e-02 2.23825261e-01 2.23825261e-01 1.96720302e-01
      1.67437136e-01 2.23825261e-01 1.72036096e-01 8.00180882e-02
      1.09415337e-01 1.00116186e-01 1.61991462e-01 2.23825261e-01
      2.23825261e-01 1.28304124e-01 9.57476795e-02 5.84762990e-02
      5.91756888e-02 1.35344669e-01 1.30535528e-01 1.34855032e-01
      2.23825261e-01 1.31244883e-01 1.84787527e-01 2.18937740e-01
      2.23825261e-01 2.23825261e-01 2.23825261e-01 1.99120790e-01
      1.63585082e-01 1.42888010e-01 1.65322810e-01 1.79464594e-01
      2.11181015e-01 2.15206370e-01 8.80412757e-02 1.51402831e-01
      7.32356757e-02 1.39304519e-01 1.52213857e-01 1.65477842e-01
      1.04657963e-01 1.65663108e-01 2.15206370e-01 9.95887667e-02
      1.64784387e-01 1.19477339e-01 1.13717213e-01 1.21322401e-01
      1.64086372e-01 2.00836420e-01 1.90623417e-01 2.15206370e-01
      1.59813955e-01 1.71850994e-01 1.74007490e-01 1.93066582e-01
      2.09346533e-01 2.13278040e-01 1.10943384e-01 1.60720885e-01
      2.15206370e-01 1.14790864e-01 1.88175440e-01 1.88749865e-01
      1.44468501e-01 1.93640575e-01 1.51821777e-01 7.74516612e-02
      8.81661549e-02 1.06185451e-01 1.69511780e-01 1.27877921e-01
      1.89185128e-01 1.34275258e-01 1.82943046e-01 1.19902916e-01
      8.98547024e-02 4.73407246e-02 9.37156454e-02 2.12101161e-01
      1.31386235e-01 1.69629455e-01 2.04325557e-01 2.26281330e-01
      1.87920660e-01 7.58595914e-02 1.22620687e-01 2.13539928e-01
      2.42044568e-01 1.90916538e-01 2.17158139e-01 2.25942940e-01
      1.25525743e-01 1.05296843e-01 5.96669875e-02 1.11886799e-01
      2.42044568e-01 2.42044568e-01 2.09091350e-01 2.06228584e-01
      2.20587924e-01 2.79948711e-01 2.79948711e-01 9.71287861e-02
      4.31195349e-02 9.17406529e-02 1.45580053e-01 1.60425425e-01
      1.73748881e-01 1.64735794e-01 2.79948711e-01 2.06815273e-01
      9.18320939e-02 1.80740044e-01 7.79890120e-02 7.68915638e-02
      1.49004698e-01 1.50499493e-01 1.73572212e-01 1.23291962e-01
      1.57395273e-01 1.08156122e-01 1.44221991e-01 1.49672419e-01
      9.28494632e-02 1.50854945e-01 1.30841404e-01 1.38036013e-01
      1.65532619e-01 2.79948711e-01 1.81884065e-01 2.06405804e-01
      1.77100316e-01 1.14776202e-01 1.45152897e-01 9.55309570e-02
      6.20104857e-02 1.51526168e-01 2.63339221e-01 1.43399701e-01
      1.26176700e-01 2.71529071e-02 2.19345763e-02 5.66065311e-02
      1.12809092e-01 1.21301062e-01 2.66011089e-01 2.66011089e-01
      2.66011089e-01 2.04580143e-01 1.01716682e-01 7.24751130e-02
      1.15813196e-01 1.59784943e-01 4.76478338e-02 1.43222764e-01
      2.66011089e-01 2.16289669e-01 1.51790261e-01 1.14603609e-01
      8.96902531e-02 6.92512095e-02 7.03826323e-02 1.42619550e-01
      1.98210016e-01 2.66011089e-01 2.66011089e-01 2.51347005e-01
      1.77228764e-01 1.36758342e-01 7.20680282e-02 1.01157963e-01
      1.20371684e-01 2.36907288e-01 1.68773413e-01 1.74329191e-01
      1.92173973e-01 1.18873298e-01 1.51300266e-01 1.33386329e-01
      7.55207762e-02 2.36907288e-01 2.12450355e-01 1.57231972e-01
      1.53175727e-01 1.82057276e-01 1.11538790e-01 1.93599835e-01
      1.88847259e-01 1.12877227e-01 7.36020803e-02 1.10737428e-01
      1.60037845e-01 2.36907288e-01 2.36907288e-01 1.81590989e-01
      1.01417527e-01 4.02819701e-02 3.11803930e-02 1.45016342e-01
      2.23309427e-01 1.87431052e-01 2.36907288e-01 2.36907288e-01
      2.03721032e-01 1.17386006e-01 1.02007478e-01 6.64478019e-02
      2.20309377e-01 2.20309377e-01 2.20309377e-01 1.82188019e-01
      1.41391441e-01 6.49425015e-02 8.81330445e-02 1.93048775e-01
      2.20309377e-01 1.40907601e-01 1.98166519e-01 2.20309377e-01
      1.53540388e-01 9.00437757e-02 6.29812852e-02 2.38835681e-02
      1.50153056e-01 2.20309377e-01 1.89876527e-01 2.20309377e-01
      2.20309377e-01 1.82040393e-01 2.20309377e-01 9.24729332e-02
      1.09531827e-01 1.71448797e-01 2.10647181e-01 1.04147375e-01
      2.05693468e-01 1.65455535e-01 1.13104410e-01 9.95777100e-02
      5.51401190e-02 6.37623444e-02 1.35110930e-01 2.20309377e-01
      8.60612988e-02 1.42994449e-01 2.00518802e-01 1.32578000e-01
      1.17851406e-01 7.71572739e-02 9.22452584e-02 2.40868926e-01
      1.93063632e-01 2.18620375e-01 1.82067648e-01 1.01219408e-01
      1.33516014e-01 1.63825378e-01 2.08665922e-01 2.40868926e-01
      2.40868926e-01 2.40868926e-01 1.20495290e-01 1.35716930e-01
      1.18452720e-01 6.35668412e-02 1.02795608e-01 7.22285658e-02
      9.04053971e-02 1.84463158e-01 2.27972910e-01 2.40868926e-01
      2.23297536e-01 1.05558187e-01 5.31647392e-02 1.15610532e-01
      8.10549781e-02 1.26794264e-01 2.40868926e-01 2.40868926e-01
      2.03135848e-01 1.63547859e-01 1.42230719e-01 1.67090669e-01
      1.42495215e-01 2.17008397e-01 1.85683325e-01 2.17008397e-01
      2.17008397e-01 1.45692855e-01 1.64605170e-01 1.31066024e-01
      1.21768057e-01 1.90744042e-01 1.80907905e-01 1.90072715e-01
      2.17008397e-01 1.83446631e-01 1.76659688e-01 1.95003122e-01
      1.25140816e-01 1.17307760e-01 9.76417363e-02 9.48013365e-02
      9.00586769e-02 2.17008397e-01 2.17008397e-01 1.09815285e-01
      1.32209912e-01 1.09257996e-01 1.19872034e-01 1.13594361e-01
      1.36280343e-01 2.17008397e-01 2.06684515e-01 1.50639847e-01
      1.17129527e-01 1.44857571e-01 1.04564920e-01 8.54285285e-02
      2.04020381e-01 2.29090437e-01 2.29090437e-01 1.48490936e-01
      1.84629306e-01 1.62616238e-01 1.35793239e-01 1.70742214e-01
      9.92663205e-02 2.29090437e-01 2.29090437e-01 2.29090437e-01
      1.46421537e-01 2.12691993e-01 1.21206574e-01 1.48279160e-01
      1.23641118e-01 6.66583925e-02 1.04920626e-01 1.59283355e-01
      1.46923378e-01 1.20939925e-01 2.29090437e-01 1.47099003e-01
      1.69887543e-01 2.01093242e-01 1.57456309e-01 1.96008250e-01
      1.62300989e-01 6.39264360e-02 1.24458395e-01 2.29090437e-01
      2.16860279e-01 1.30692169e-01 1.47655800e-01 9.12583098e-02
      2.13328257e-01 1.55933529e-01 9.74471718e-02 1.56610310e-01
      1.53056830e-01 1.84986949e-01 1.31278336e-01 2.24966958e-01
      1.54409826e-01 2.24966958e-01 2.24966958e-01 2.24966958e-01
      1.72967151e-01 6.79664090e-02 1.50968999e-01 1.30478650e-01
      1.54365212e-01 7.44440407e-02 1.93737164e-01 1.11234382e-01
      7.58802742e-02 1.76982939e-01 1.32175744e-01 1.54765755e-01
      1.96691394e-01 1.69794604e-01 6.02316894e-02 2.24966958e-01
      2.24966958e-01 2.24966958e-01 1.63035408e-01 1.29656896e-01
      3.60223800e-02 7.03285187e-02 1.82118863e-01 1.36831552e-01
      1.43617511e-01 2.69600093e-01 2.31242627e-01 8.46847370e-02
      3.62249911e-02 7.81431571e-02 7.90099278e-02 1.46819815e-01
      2.69600093e-01 2.69600093e-01 2.69600093e-01 1.99456662e-01
      6.62007630e-02 5.46231009e-02 5.66550046e-02 8.42882469e-02
      6.43553510e-02 3.82433608e-02 1.38653651e-01 2.69600093e-01
      2.69600093e-01 7.92276412e-02 4.10806872e-02 2.98189800e-02
      5.21513335e-02 7.35487938e-02 2.28844330e-01 2.69600093e-01
      2.69600093e-01 2.69600093e-01 1.18286029e-01 5.37533648e-02
      2.32781433e-02 2.79182382e-02 8.79143700e-02 2.80910611e-01
      2.80910611e-01 1.80161893e-01 5.24057448e-02 1.75053868e-02
      1.61478873e-02 2.44924109e-02 8.62425119e-02 1.20517708e-01
      2.80910611e-01 2.80910611e-01 2.80910611e-01 1.30741179e-01
      6.25017136e-02 5.65908439e-02 9.12095699e-03 9.74448211e-03
      6.17638379e-02 2.80910611e-01 2.80910611e-01 2.61383802e-01
      9.23193544e-02 3.12721655e-02 1.99226663e-02 1.28561920e-02
      6.68175658e-03 6.08655401e-02 2.80910611e-01 2.80910611e-01
      2.80910611e-01 1.51656300e-01 5.62201664e-02 6.48971796e-02
      8.19799230e-02 2.23181948e-01 1.86135009e-01 2.22021818e-01
      2.26109296e-01 2.02034697e-01 2.23127618e-01 1.62456930e-01
      1.84768274e-01 1.02068029e-01 1.50186703e-01 1.53775856e-01
      9.22296569e-02 1.12166420e-01 5.13440445e-02 1.08845860e-01
      1.13676786e-01 1.62327662e-01 7.07887262e-02 7.14455768e-02
      1.74977988e-01 2.26109296e-01 2.26109296e-01 2.26109296e-01
      2.26109296e-01 1.42001688e-01 1.86753184e-01 1.78876966e-01
      1.81329355e-01 2.26109296e-01 1.56200886e-01 8.80592093e-02
      6.07441664e-02 1.11145899e-01 8.91258195e-02 2.26109296e-01
      1.98264882e-01 1.45858943e-01 1.12590007e-01 8.48277509e-02
      1.37498975e-01 7.28243440e-02 9.13244188e-02 1.26975134e-01
      2.05037087e-01 2.29354486e-01 1.85313478e-01 1.15547568e-01
      5.43946140e-02 1.64233804e-01 1.07613817e-01 1.08343489e-01
      2.39913136e-01 2.39913136e-01 2.39913136e-01 1.88090757e-01
      1.96918011e-01 1.35502279e-01 1.41227484e-01 8.20012689e-02
      7.89765939e-02 1.67515591e-01 2.39913136e-01 2.39913136e-01
      1.27149493e-01 1.16496332e-01 7.22775683e-02 1.43339872e-01
      1.72280252e-01 1.76935494e-01 2.39913136e-01 2.39913136e-01
      1.37024611e-01 1.58954546e-01 1.11924060e-01 1.10442430e-01
      1.35513783e-01 1.57766521e-01 1.02735378e-01 2.08338156e-01
      2.13094205e-01 1.77653030e-01 1.59639835e-01 1.65078148e-01
      2.11322516e-01 1.27587304e-01 1.82858974e-01 1.73322544e-01
      1.45748004e-01 1.64762110e-01 2.19659790e-01 1.24435425e-01
      8.13829750e-02 1.17296271e-01 1.04250617e-01 1.64799020e-01
      1.88240528e-01 2.19659790e-01 2.19659790e-01 2.19659790e-01
      1.85662135e-01 1.48272619e-01 2.19659790e-01 1.26311958e-01
      1.45465091e-01 1.71230108e-01 1.61390364e-01 1.72626898e-01
      1.82823002e-01 1.24689460e-01 1.59031630e-01 1.68715522e-01
      9.12111551e-02 1.41832948e-01 1.51303947e-01 1.47478744e-01
      2.00375870e-01 1.55137181e-01 1.32595405e-01 1.25991806e-01
      1.69798747e-01 1.42625928e-01 1.70047998e-01 2.24708840e-01
      2.24708840e-01 2.24708840e-01 2.24708840e-01 1.13264255e-01
      1.49415076e-01 1.76572844e-01 1.05535544e-01 9.73111317e-02
      1.92222655e-01 1.39651060e-01 1.39386654e-01 1.74152464e-01
      1.46088496e-01 1.64347470e-01 9.31547657e-02 1.25371501e-01
      1.92590982e-01 2.24708840e-01 2.24708840e-01 2.00579062e-01
      1.65396675e-01 1.05845161e-01 1.35243550e-01 8.61149132e-02
      1.83269769e-01 1.01582870e-01 5.02029434e-02 1.33429497e-01
      1.37209922e-01 2.17252418e-01 2.17252418e-01 1.98529646e-01
      1.12524830e-01 1.46312803e-01 2.17252418e-01 1.63108319e-01
      1.20892115e-01 2.17252418e-01 1.92582414e-01 8.24525654e-02
      2.17252418e-01 9.62850451e-02 2.17252418e-01 1.31669521e-01
      1.06118590e-01 1.61575198e-01 1.56605616e-01 2.17252418e-01
      1.81317434e-01 2.06938446e-01 1.52845562e-01 1.70426264e-01
      2.17252418e-01 1.70460194e-01 1.46510556e-01 2.17252418e-01
      1.36704937e-01 1.35098815e-01 9.01086405e-02 4.20987606e-02
      9.98505950e-02 2.65711993e-01 2.65711993e-01 1.00956716e-01
      7.54527599e-02 7.86955208e-02 5.88610545e-02 7.54529461e-02
      1.41845703e-01 2.65711993e-01 2.65711993e-01 2.65711993e-01
      2.65711993e-01 6.27865493e-02 1.56258881e-01 1.05346702e-01
      7.51981065e-02 9.43101496e-02 8.71529952e-02 1.51307970e-01
      1.20758936e-01 1.00968376e-01 1.30003661e-01 1.59517691e-01
      1.20030984e-01 1.08387917e-01 9.24447551e-02 2.41764829e-01
      2.65711993e-01 2.65711993e-01 2.65711993e-01 9.48098227e-02
      1.88672617e-02 1.18756471e-02 7.08692893e-02 2.57808656e-01
      2.57808656e-01 2.57808656e-01 1.84117645e-01 1.12527579e-01
      3.39629501e-02 3.26147899e-02 1.71067566e-02 5.83774783e-02
      2.57808656e-01 2.57808656e-01 2.57808656e-01 1.39498204e-01
      8.60825256e-02 9.12809074e-02 6.16938919e-02 6.41113520e-02
      1.27790689e-01 1.60316959e-01 2.57808656e-01 1.82357311e-01
      1.48280278e-01 1.52367756e-01 4.96074781e-02 1.63347423e-01
      1.46754146e-01 1.00293674e-01 2.08082601e-01 2.27589935e-01
      2.33452901e-01 1.89484566e-01 1.93392709e-01 1.64072946e-01
      1.11039110e-01 6.87919855e-02 1.31571859e-01 1.87472716e-01
      2.09589377e-01 2.19914004e-01 1.79316133e-01 1.21895909e-01
      1.32272050e-01 1.52564898e-01 1.82605460e-01 2.19035476e-01
      1.30817145e-01 9.05195400e-02 1.17140822e-01 1.17773883e-01
      8.70169029e-02 1.42776906e-01 2.19914004e-01 2.14703888e-01
      1.03535444e-01 1.55305177e-01 1.34032264e-01 1.89808488e-01
      2.12301463e-01 1.79168925e-01 2.19914004e-01 2.19914004e-01
      1.78220153e-01 1.29474044e-01 1.50960043e-01 1.80631444e-01
      1.82169870e-01 2.19914004e-01 1.58301309e-01 1.35245457e-01
      2.14834169e-01 1.71767578e-01 1.40698418e-01 9.66198593e-02
      1.08395852e-01 1.01599872e-01 9.74485800e-02 1.46425188e-01
      2.14834169e-01 2.14834169e-01 1.04371198e-01 1.05362877e-01
      7.49257356e-02 1.05068661e-01 1.67931303e-01 1.67582780e-01
      2.14834169e-01 2.14834169e-01 1.47503406e-01 1.62182197e-01
      9.58347991e-02 1.35948390e-01 1.82040751e-01 1.67488664e-01
      2.14834169e-01 2.14834169e-01 1.56544358e-01 1.71508551e-01
      1.67033970e-01 1.76084489e-01 1.68948159e-01 1.96462959e-01
      1.84208497e-01 2.08320498e-01 1.91699862e-01 1.92961022e-01
      2.13199660e-01 9.06159356e-02 9.75179151e-02 1.02488585e-01
      7.88763836e-02 1.20461494e-01 1.69771552e-01 2.13199660e-01
      2.13199660e-01 2.13199660e-01 1.26934975e-01 1.31936133e-01
      1.20648265e-01 9.37516764e-02 1.38887629e-01 1.59261197e-01
      1.82179943e-01 1.60675168e-01 1.43025339e-01 1.74099311e-01
      2.03771457e-01 1.61700904e-01 1.97354183e-01 1.47351250e-01
      1.33808956e-01 2.13199660e-01 1.85605451e-01 1.94247231e-01
      1.78814083e-01 2.13199660e-01 1.60795167e-01 1.38519198e-01
      1.82636932e-01 1.65231839e-01 2.13199660e-01 1.85813904e-01
      2.05403641e-01 1.09640330e-01 1.17780179e-01 6.15869612e-02
      7.89672062e-02 1.35105520e-01 1.52643234e-01 1.36624858e-01
      1.05097346e-01 1.69762969e-01 1.99412465e-01 2.11870193e-01
      9.18696225e-02 1.30979404e-01 1.36958301e-01 1.77910954e-01
      1.69192091e-01 1.73535898e-01 2.10783169e-01 1.82224512e-01
      1.95256814e-01 7.21195638e-02 1.50649861e-01 1.68667138e-01
      1.70625046e-01 2.11870193e-01 1.53736025e-01 2.11870193e-01
      2.11870193e-01 2.11870193e-01 1.44390106e-01 2.11870193e-01
      1.80619076e-01 1.04520969e-01 2.04586878e-01 2.11504310e-01
      1.38119072e-01 7.31282458e-02 2.04470500e-01 6.86822161e-02
      2.17087582e-01 9.45652798e-02 1.70000136e-01 1.43937647e-01
      1.92492262e-01 1.61055118e-01 1.53269112e-01 2.17087582e-01
      1.37636438e-01 2.17087582e-01 1.51275516e-01 1.78212047e-01
      1.75137162e-01 2.17087582e-01 1.54714301e-01 1.45366013e-01
      1.24176137e-01 1.20582744e-01 2.17087582e-01 3.68867293e-02
      2.17087582e-01 1.22207396e-01 1.75866663e-01 1.34365529e-01
      1.94531962e-01 2.17087582e-01 1.03229150e-01 2.17087582e-01
      9.44918245e-02 1.62052348e-01 1.71573788e-01 2.17087582e-01
      1.50550961e-01 1.15234599e-01 1.45038530e-01 1.56739295e-01
      1.93515509e-01 1.39566809e-01 1.33414716e-01 1.54447421e-01
      2.19225809e-01 2.19225809e-01 2.19225809e-01 1.51308253e-01
      9.93845910e-02 2.19225809e-01 1.76933780e-01 9.90136340e-02
      1.78149268e-01 1.78389296e-01 1.63288787e-01 1.17630936e-01
      1.73664123e-01 1.11059956e-01 2.07241759e-01 1.20437525e-01
      1.18366137e-01 1.35145247e-01 2.11087644e-01 2.19225809e-01
      2.02843338e-01 1.73486486e-01 1.24362849e-01 2.19225809e-01
      9.45933089e-02 9.14843529e-02 1.51696622e-01 2.18084291e-01
      1.42821133e-01 1.86761662e-01 1.61768422e-01 9.71436873e-02
      1.92241609e-01 1.00938112e-01 8.96710008e-02 1.46859095e-01
      9.93882641e-02 2.27328226e-01 2.27328226e-01 1.63957506e-01
      1.40730739e-01 1.28379613e-01 1.39096051e-01 2.27328226e-01
      2.27328226e-01 1.74050763e-01 1.57233208e-01 1.73056975e-01
      1.23907924e-01 5.90699576e-02 2.27328226e-01 5.44071123e-02
      8.08833987e-02 1.63515881e-01 1.36477396e-01 2.07803011e-01
      2.27328226e-01 2.27328226e-01 2.17357993e-01 2.23371774e-01
      5.35446256e-02 9.47323665e-02 1.84104249e-01 1.76689699e-01
      2.20576361e-01 2.20576361e-01 1.59001544e-01 1.58563063e-01
      1.04982562e-01 1.22710802e-01 1.71412900e-01 1.15567304e-01
      1.41681999e-01 2.20576361e-01 1.36012003e-01 1.62764952e-01
      1.65429294e-01 1.90820009e-01 1.99413225e-01 2.20576361e-01
      1.44102678e-01 1.09002620e-01 1.93992004e-01 2.20576361e-01
      2.20576361e-01 2.06310377e-01 1.18459813e-01 6.14484996e-02
      5.54993041e-02 8.69153291e-02 1.20902754e-01 2.20576361e-01
      1.66413322e-01 1.78453177e-01 1.10949151e-01 1.80210963e-01
      1.82020724e-01 1.47397250e-01 1.45904616e-01 1.81636035e-01
      1.01132542e-01 1.53399184e-01 1.23830304e-01 1.40162334e-01
      1.80339679e-01 2.13613078e-01 2.13613078e-01 2.13613078e-01
      1.16391912e-01 1.01787746e-01 1.54299319e-01 1.29428178e-01
      1.53339028e-01 2.01666087e-01 1.69321269e-01 1.73931643e-01
      2.06400245e-01 1.39159396e-01 1.53252438e-01 1.32641047e-01
      1.31466478e-01 1.06760800e-01 1.58350393e-01 2.13613078e-01
      1.97326496e-01 1.94413438e-01 1.99081004e-01 1.28959641e-01
      1.27639949e-01 8.95867348e-02 1.06067561e-01 2.13613078e-01
      2.13613078e-01 1.66043013e-01 2.13613078e-01 1.91519290e-01
      9.49676707e-02 1.63167834e-01 1.50569528e-01 1.32234514e-01
      2.06579566e-01 1.34222388e-01 8.65799487e-02 1.57439664e-01
      1.48043990e-01 1.05147809e-01 1.81498855e-01 2.24594399e-01
      2.12160155e-01 1.55119762e-01 1.20571502e-01 1.13366991e-01
      1.60700947e-01 1.82141498e-01 1.73744872e-01 1.25432551e-01
      9.44525078e-02 8.77105817e-02 2.24594399e-01 1.91939771e-01
      1.07569665e-01 1.78987414e-01 2.19424784e-01 1.35684982e-01
      2.02922583e-01 2.24594399e-01 2.07742780e-01 2.24594399e-01
      1.47527754e-01 1.09858185e-01 1.66373089e-01 2.24594399e-01
      1.43793300e-01 2.22524270e-01 2.22524270e-01 1.64147526e-01
      1.28575489e-01 1.00567147e-01 1.02223352e-01 1.40072539e-01
      1.27387822e-01 1.73756242e-01 2.22524270e-01 1.96595758e-01
      1.87059700e-01 1.81538910e-01 1.59929529e-01 9.36884880e-02
      1.42449453e-01 1.67083919e-01 1.05941519e-01 2.22524270e-01
      2.22524270e-01 2.22524270e-01 1.54935941e-01 7.00364932e-02
      7.80168325e-02 1.19951509e-01 1.33139417e-01 1.85732216e-01
      2.22524270e-01 2.22524270e-01 2.22524270e-01 1.04238980e-01
      1.29119396e-01 1.37629867e-01 1.55479982e-01 1.69473052e-01
      1.91138566e-01 1.84187025e-01 1.58503830e-01 2.11415440e-01
      2.25458533e-01 4.23711427e-02 1.75108865e-01 9.26738754e-02
      1.89233899e-01 1.53211311e-01 1.34956270e-01 1.39288217e-01
      5.98987080e-02 2.25458533e-01 1.07152395e-01 1.62948936e-01
      1.33341119e-01 2.05006212e-01 1.59942567e-01 2.23985270e-01
      1.70206696e-01 1.81083962e-01 2.25458533e-01 7.21995682e-02
      1.66243270e-01 1.56772152e-01 2.25458533e-01 1.46191806e-01
      1.72460571e-01 1.22016817e-01 3.85876857e-02 2.25458533e-01
      8.38358253e-02 2.19185218e-01 1.50871575e-01 1.53856903e-01
      1.26433209e-01 8.50297734e-02 1.09427407e-01 4.83924448e-02
      1.60056606e-01 1.48753271e-01 1.27173752e-01 1.22677729e-01
      1.66217655e-01 1.81705728e-01 1.36782140e-01 1.43787339e-01
      1.45693690e-01 2.14436203e-01 2.01200470e-01 1.51084766e-01
      1.76646858e-01 2.03919128e-01 1.28795564e-01 8.43431801e-02
      1.00809924e-01 5.09033352e-02 2.30318546e-01 1.42526627e-01
      1.53912172e-01 1.05182812e-01 1.64682001e-01 1.29253358e-01
      1.71248958e-01 2.30318546e-01 2.30318546e-01 2.30318546e-01
      2.30318546e-01 2.22043633e-01 2.24922270e-01 2.19230458e-01
      4.56841402e-02 9.79190394e-02 1.21156394e-01 6.13706075e-02
      7.26663694e-02 4.49646302e-02 6.29123524e-02 7.32131973e-02
      5.32609783e-02 1.12489112e-01 2.90030211e-01 2.90030211e-01
      1.45634159e-01 7.67780393e-02 4.30860110e-02 4.76516336e-02
      6.76623657e-02 1.18298307e-01 3.64039503e-02 2.08218649e-01
      2.90030211e-01 2.39768654e-01 1.04007788e-01 6.54052645e-02
      7.70098343e-02 1.47207409e-01 1.04172021e-01 2.26569101e-01
      2.90030211e-01 2.90030211e-01 2.54081964e-01 1.03260979e-01
      7.49101266e-02 9.14398953e-02 2.90030211e-01 2.90030211e-01
      1.83040455e-01 2.26189494e-01 2.60921240e-01 9.15401056e-02
      4.14946526e-02 3.24225537e-02 2.65133120e-02 6.55622184e-02
      1.29232332e-01 2.60921240e-01 1.59431949e-01 5.33876307e-02
      3.59935984e-02 5.55920564e-02 6.35429174e-02 7.61506259e-02
      1.24400094e-01 2.10375980e-01 2.60921240e-01 2.60921240e-01
      2.17954665e-01 1.11139402e-01 1.12255938e-01 1.08785644e-01
      1.09345675e-01 1.87615767e-01 2.60921240e-01 2.60921240e-01
      2.60921240e-01 1.64921001e-01 1.45007655e-01 1.38267636e-01
      9.61286128e-02 9.15284678e-02 1.28831565e-01 2.60921240e-01
      1.57875225e-01 1.47288397e-01 3.64368334e-02 4.44436632e-02
      5.96284531e-02 7.61920959e-02 9.06976983e-02 1.43696710e-01
      1.70064583e-01 1.10144347e-01 1.06326275e-01 4.46090363e-02
      6.59034550e-02 9.62725878e-02 8.05513039e-02 1.51095077e-01
      2.00379029e-01 1.14829004e-01 2.55024225e-01 2.55024225e-01
      2.55024225e-01 2.37908050e-01 1.52451038e-01 5.03094345e-02
      5.92754930e-02 1.39509723e-01 2.55024225e-01 2.42711216e-01
      2.55024225e-01 2.55024225e-01 2.55024225e-01 1.61244288e-01
      6.10581264e-02 1.93453759e-01 2.17061698e-01 1.57768264e-01
      1.59422249e-01 7.62434378e-02 6.75463229e-02 9.29603875e-02
      2.19302893e-01 1.15921251e-01 1.98145702e-01 2.25243345e-01
      1.64880261e-01 1.25370204e-01 1.28405541e-01 1.13816150e-01
      1.18477352e-01 2.29917929e-01 9.01122540e-02 1.35452643e-01
      1.29665360e-01 2.07425460e-01 2.01273739e-01 1.26645908e-01
      2.29917929e-01 2.29917929e-01 2.29917929e-01 1.39573559e-01
      2.29917929e-01 2.29917929e-01 1.46778733e-01 1.62095845e-01
      1.44063756e-01 7.87538067e-02 1.59870461e-01 2.29917929e-01
      1.31134108e-01 1.37305513e-01 1.14097506e-01 1.83262646e-01
      1.31193265e-01 1.94374710e-01 1.38051793e-01 1.54241800e-01
      1.73081219e-01 4.94400039e-02 1.33978024e-01 1.16387203e-01
      1.45690128e-01 1.88818082e-01 1.84587702e-01 1.67269602e-01
      1.36345357e-01 1.72286078e-01 8.57180133e-02 2.21187741e-01
      1.43336698e-01 1.58630803e-01 2.15962917e-01 2.21239105e-01
      9.27641988e-02 1.61033079e-01 2.23813280e-01 8.21829587e-02
      1.32087186e-01 1.15449481e-01 1.54672191e-01 2.23813280e-01
      2.23813280e-01 2.13960946e-01 1.23308748e-01 2.23813280e-01
      8.25220868e-02 2.23813280e-01 1.71094656e-01 1.66536286e-01</_>
    <_>
      1.76108629e-01 9.28302407e-02 1.15256645e-01 1.18079141e-01
      8.93404484e-02 1.38852149e-01 1.86594725e-01 1.69265360e-01
      1.68953151e-01 2.16766074e-01 1.63677871e-01 1.39401376e-01
      8.17745253e-02 8.08712766e-02 9.94246304e-02 1.85464710e-01
      1.87718809e-01 1.57909006e-01 1.79278553e-01 1.75724760e-01
      1.37018621e-01 1.24503426e-01 1.37111366e-01 1.95937574e-01
      1.95298016e-01 1.30347267e-01 2.21976191e-01 2.21976191e-01
      2.21976191e-01 1.53050542e-01 1.28560334e-01 1.40041396e-01
      1.89556241e-01 2.21976191e-01 2.21976191e-01 2.21976191e-01
      1.61003754e-01 1.96433738e-01 1.53013974e-01 8.60378221e-02
      7.49471784e-02 9.71721634e-02 1.79403976e-01 1.50213480e-01
      1.46999165e-01 8.86463970e-02 1.79079294e-01 1.41116828e-01
      8.73691142e-02 8.41594860e-02 1.09749094e-01 1.64709613e-01
      1.41537234e-01 1.61995396e-01 2.30591893e-01 2.30591893e-01
      1.38713345e-01 1.86789915e-01 1.19554497e-01 1.91591084e-01
      2.30591893e-01 2.30591893e-01 2.30591893e-01 1.01886414e-01
      1.41592354e-01 1.64054751e-01 1.72615424e-01 6.79298863e-02
      1.95306808e-01 2.09061757e-01 2.30591893e-01 2.30591893e-01
      1.06991515e-01 9.93073285e-02 7.98071474e-02 1.10852040e-01
      1.11548461e-01 1.57911032e-01 1.23884372e-01 1.79518968e-01
      1.40450805e-01 1.79166794e-01 1.00755729e-01 1.94719777e-01
      1.24429733e-01 2.00491413e-01 2.18862936e-01 1.74908593e-01
      2.18862936e-01 2.18370393e-01 1.60102874e-01 1.03024863e-01
      2.00995475e-01 2.12255001e-01 4.58932556e-02 1.85055479e-01
      1.68933153e-01 1.63152069e-01 1.68713436e-01 2.18862936e-01
      1.77149937e-01 2.18862936e-01 2.18862936e-01 8.27931613e-02
      1.48050502e-01 1.68274209e-01 1.52739376e-01 2.14621216e-01
      1.38503164e-01 1.32197261e-01 2.06100002e-01 5.82252368e-02
      1.84607252e-01 1.40046865e-01 1.28439426e-01 1.51630208e-01
      1.78962708e-01 2.15692475e-01 2.29846016e-01 2.06951231e-01
      5.75786792e-02 1.28305182e-01 1.38282284e-01 9.82351527e-02
      1.08248785e-01 1.83571741e-01 2.08355293e-01 2.40370318e-01
      2.40370318e-01 1.24823667e-01 1.39229283e-01 5.97518049e-02
      9.59185809e-02 1.29734680e-01 1.63792849e-01 2.40370318e-01
      2.40370318e-01 2.40370318e-01 1.42106950e-01 1.49216875e-01
      4.92786393e-02 9.71590728e-02 2.05568865e-01 1.82841346e-01
      1.65022582e-01 1.49663031e-01 1.17341816e-01 4.75467630e-02
      6.20202571e-02 1.69065356e-01 1.67015284e-01 1.62646368e-01
      1.71523437e-01 1.52824730e-01 9.84960571e-02 9.87445265e-02
      7.70524964e-02 8.08943808e-02 1.40538231e-01 1.76154926e-01
      2.24226952e-01 1.91520169e-01 2.20470101e-01 2.24226952e-01
      2.13358894e-01 1.21066056e-01 9.41430032e-02 8.28547552e-02
      1.46272123e-01 2.24226952e-01 2.24226952e-01 1.92729965e-01
      1.79772064e-01 1.72908098e-01 1.71662465e-01 1.39070243e-01
      1.92761734e-01 2.00620160e-01 2.24226952e-01 2.24226952e-01
      1.46872059e-01 9.18829590e-02 1.90051541e-01 1.30663693e-01
      1.15794867e-01 7.94773102e-02 1.42142043e-01 1.49176851e-01
      1.98899716e-01 1.23669520e-01 1.65795729e-01 2.11807683e-01
      1.28216073e-01 1.63479194e-01 1.18169144e-01 2.11807683e-01
      8.67448822e-02 1.82943374e-01 1.54933766e-01 1.28021732e-01
      1.95153028e-01 1.90333918e-01 9.35768187e-02 2.11807683e-01
      1.98634595e-01 2.11807683e-01 2.11654991e-01 1.62858248e-01
      2.11465582e-01 2.11807683e-01 1.25055596e-01 1.31442875e-01
      1.79083839e-01 1.95358619e-01 1.63028687e-01 1.97557405e-01
      1.13866203e-01 1.67435184e-01 2.09681779e-01 1.29584402e-01
      1.42520398e-01 1.48139045e-01 1.94502652e-01 1.06692836e-01
      1.27793744e-01 1.88842535e-01 2.09681779e-01 2.07973137e-01
      1.45030230e-01 1.88841969e-01 1.33369818e-01 1.19046733e-01
      1.46624848e-01 1.52115270e-01 1.48051560e-01 1.81291714e-01
      1.58561841e-01 1.13728285e-01 1.56082854e-01 1.67848885e-01
      1.89971745e-01 1.25055179e-01 2.09681779e-01 1.80046245e-01
      2.09681779e-01 1.51301980e-01 1.20317332e-01 1.67896241e-01
      1.72995806e-01 1.76851153e-01 2.09681779e-01 2.09681779e-01
      2.69889206e-01 2.69889206e-01 1.31327748e-01 6.67507425e-02
      7.22772703e-02 6.31516427e-02 7.15756416e-02 8.97506028e-02
      2.24021256e-01 2.69889206e-01 2.69889206e-01 1.29188538e-01
      5.03590405e-02 5.59713095e-02 7.91267827e-02 1.00809433e-01
      1.68551058e-01 2.69889206e-01 2.69889206e-01 2.69889206e-01
      1.65652096e-01 6.79678842e-02 3.76411341e-02 5.36669381e-02
      4.78246845e-02 6.97032511e-02 1.89182922e-01 2.69889206e-01
      2.49321267e-01 1.42081752e-01 8.63911062e-02 4.51675504e-02
      3.62499990e-02 4.96023037e-02 8.03719312e-02 2.67828912e-01
      2.37813786e-01 2.23680958e-01 8.33737552e-02 4.08622772e-02
      3.18858027e-02 5.11968583e-02 1.08638301e-01 2.37813786e-01
      2.37813786e-01 1.20435521e-01 1.00695938e-01 7.44238570e-02
      5.99333383e-02 2.28862744e-02 8.55676979e-02 2.37813786e-01
      2.37813786e-01 1.92278221e-01 2.37813786e-01 2.37813786e-01
      1.82867050e-01 7.12896585e-02 5.76192401e-02 2.58195717e-02
      9.26091745e-02 1.86942086e-01 1.74220026e-01 2.15593427e-01
      2.37813786e-01 1.61516309e-01 1.12601496e-01 1.26447305e-01
      1.40092820e-01 2.37813786e-01 2.37813786e-01 2.05269471e-01
      1.36666998e-01 1.47748455e-01 1.26032948e-01 9.95933339e-02
      3.02134566e-02 1.03869699e-01 1.93974346e-01 1.47407070e-01
      1.35230809e-01 2.28454381e-01 2.28454381e-01 1.49215624e-01
      1.00266576e-01 4.51249182e-02 5.76272346e-02 5.67666404e-02
      1.68056592e-01 2.14880452e-01 2.28454381e-01 2.28454381e-01
      2.18014702e-01 1.21386185e-01 9.67535302e-02 1.65855274e-01
      2.28454381e-01 1.80771828e-01 2.20730349e-01 2.28454381e-01
      2.28454381e-01 2.28454381e-01 1.14362225e-01 8.25088620e-02
      7.27603436e-02 9.24807712e-02 2.06777260e-01 2.28454381e-01
      1.69077143e-01 2.43548632e-01 2.14180797e-01 7.46030584e-02
      6.05445988e-02 2.29651313e-02 5.23268059e-02 1.45287216e-01
      1.80500463e-01 1.91331178e-01 2.43548632e-01 2.37682581e-01
      1.25951096e-01 1.06730081e-01 4.89590392e-02 5.82963414e-02
      9.89549756e-02 1.02331296e-01 1.83770314e-01 2.43548632e-01
      2.43548632e-01 1.34567738e-01 8.31917226e-02 4.89655137e-02
      9.43069458e-02 1.64360985e-01 1.85008317e-01 1.68358922e-01
      2.43548632e-01 2.38096654e-01 1.78123578e-01 1.44813776e-01
      2.11138576e-01 1.75574049e-01 1.35884315e-01 2.25801855e-01
      1.21541679e-01 2.09277019e-01 1.20835707e-01 1.77168354e-01
      1.40606776e-01 1.01855129e-01 9.73810852e-02 1.35943159e-01
      1.00745201e-01 1.35939822e-01 1.65490329e-01 1.20864756e-01
      2.09277019e-01 1.90314487e-01 2.09277019e-01 1.85300857e-01
      1.70431480e-01 1.66249707e-01 1.15097947e-01 1.42310351e-01
      1.10714473e-01 2.09277019e-01 1.59164488e-01 1.86115712e-01
      1.57122195e-01 1.41123563e-01 2.01545715e-01 2.08548844e-01
      1.92087457e-01 1.73280448e-01 2.09277019e-01 1.70682639e-01
      2.01014146e-01 1.91110998e-01 1.43840462e-01 1.84565142e-01
      2.04059854e-01 1.59489945e-01 1.14315249e-01 9.10053775e-02
      6.47899359e-02 1.47892490e-01 1.76177278e-01 1.84199750e-01
      1.39510453e-01 1.83384299e-01 1.65902495e-01 8.47932994e-02
      2.73725465e-02 2.92498544e-02 1.33965194e-01 1.89974770e-01
      2.30898023e-01 1.34054795e-01 2.32535273e-01 2.32535273e-01
      1.48794055e-01 7.91356713e-02 1.22100435e-01 2.15671331e-01
      2.32535273e-01 1.90250352e-01 1.45568058e-01 1.86491072e-01
      1.70283541e-01 1.30658880e-01 3.14993933e-02 1.74468398e-01
      2.32535273e-01 2.32535273e-01 2.32535273e-01 1.39832720e-01
      1.37701467e-01 1.15002908e-01 5.98347746e-02 3.32516208e-02
      4.81450744e-02 1.48606583e-01 2.11213276e-01 2.33631819e-01
      1.97023451e-01 1.34771019e-01 1.00764178e-01 7.39425868e-02
      4.41258028e-02 6.26089647e-02 1.27842039e-01 2.10278094e-01
      2.40141377e-01 2.05505148e-01 1.47694796e-01 1.02964520e-01
      1.64324984e-01 3.83718796e-02 1.15451649e-01 2.40141377e-01
      2.40141377e-01 2.40141377e-01 1.68316469e-01 1.95250481e-01
      1.63081318e-01 2.40141377e-01 1.32193357e-01 8.71127993e-02
      1.55624315e-01 2.40141377e-01 2.40141377e-01 1.88790172e-01
      1.40123263e-01 2.19302475e-01 1.71554342e-01 9.39699635e-02
      5.77234738e-02 1.13588490e-01 1.00526504e-01 9.62486491e-02
      1.30064964e-01 1.75527245e-01 2.45199576e-01 2.54952043e-01
      2.54952043e-01 9.90287438e-02 9.54688042e-02 8.49909559e-02
      8.45164657e-02 1.05599023e-01 1.01352468e-01 1.80639684e-01
      2.02922344e-01 9.55908000e-02 1.23657636e-01 1.54175326e-01
      7.06427693e-02 1.05721630e-01 1.08342789e-01 1.03963219e-01
      2.45429263e-01 2.54952043e-01 2.54952043e-01 2.54952043e-01
      2.28493780e-01 2.54952043e-01 1.42890632e-01 9.85471532e-02
      1.00799352e-01 2.22804636e-01 2.64444321e-01 1.82687983e-01
      1.05448328e-01 5.52073754e-02 6.16501458e-02 5.50023578e-02
      3.98139954e-02 1.86126962e-01 2.37705410e-01 2.13658944e-01
      2.59321868e-01 2.64444321e-01 1.87615097e-01 1.74698159e-01
      1.24236636e-01 1.04033835e-01 7.53340125e-02 1.19186282e-01
      2.21161380e-01 2.63012439e-01 1.96373880e-01 9.39655751e-02
      1.06348187e-01 5.79390898e-02 4.11450863e-02 9.24223140e-02
      9.28295329e-02 1.41902849e-01 2.64444321e-01 2.64444321e-01
      2.16599792e-01 1.09589517e-01 7.69963488e-02 4.45738472e-02
      2.38141283e-01 2.15996891e-01 2.04640716e-01 1.71202883e-01
      1.94119930e-01 1.78219169e-01 1.64770111e-01 1.16848022e-01
      1.34324417e-01 2.38141283e-01 2.38141283e-01 2.38141283e-01
      1.27933800e-01 1.05978936e-01 7.20219761e-02 9.28992629e-02
      1.18481994e-01 8.59501511e-02 1.30131856e-01 1.15539409e-01
      1.48530617e-01 2.38141283e-01 2.38141283e-01 2.38141283e-01
      1.15416184e-01 1.14230350e-01 7.21706524e-02 1.82090729e-01
      1.67519465e-01 2.22022310e-01 9.92007479e-02 1.99194282e-01
      1.50636733e-01 8.42844620e-02 1.11811645e-01 7.35763907e-02
      2.30106592e-01 2.30106592e-01 2.30106592e-01 1.95841432e-01
      1.31909892e-01 5.79099245e-02 8.47967416e-02 1.34512782e-01
      9.25148055e-02 1.77760527e-01 1.43720508e-01 1.43684134e-01
      1.58702552e-01 1.51336730e-01 2.30106592e-01 2.30106592e-01
      2.30106592e-01 2.30106592e-01 1.56818211e-01 1.48433745e-01
      2.30106592e-01 1.38105139e-01 1.56847298e-01 7.73742348e-02
      5.98489270e-02 1.02039315e-01 8.93590227e-02 1.72152996e-01
      2.14050159e-01 1.57080218e-01 1.04247972e-01 1.02682322e-01
      1.13415986e-01 8.48640800e-02 2.17601046e-01 2.30106592e-01
      1.90817386e-01 1.80229679e-01 1.09272681e-01 1.33707985e-01
      1.38566241e-01 1.95075497e-01 1.69113815e-01 2.22860411e-01
      2.22860411e-01 2.12697461e-01 2.22860411e-01 1.69602692e-01
      1.76257968e-01 1.49950817e-01 1.20437257e-01 1.80602029e-01
      1.92530543e-01 2.07805634e-01 1.97676614e-01 2.22860411e-01
      8.34648386e-02 9.91215110e-02 8.37744921e-02 8.92523602e-02
      7.78205469e-02 1.72394827e-01 2.22860411e-01 1.67076930e-01
      1.78555593e-01 9.05830115e-02 1.40060544e-01 1.30417109e-01
      9.46922228e-02 1.44250423e-01 2.04968616e-01 1.64009064e-01
      1.42694578e-01 1.73145115e-01 8.75781253e-02 8.12323913e-02
      1.85367897e-01 2.28371575e-01 2.28371575e-01 1.94614232e-01
      1.13251179e-01 9.53494608e-02 2.06438869e-01 1.86826676e-01
      7.93650746e-02 2.28371575e-01 2.28371575e-01 2.28371575e-01
      2.28371575e-01 1.60271794e-01 1.16621010e-01 9.54071805e-02
      5.15787825e-02 6.70956224e-02 1.35052830e-01 1.32549927e-01
      1.33266523e-01 1.96307212e-01 1.99340120e-01 2.01993272e-01
      1.70339689e-01 1.80322841e-01 8.66720080e-02 1.67742059e-01
      1.77405491e-01 7.94234350e-02 1.64019287e-01 2.28371575e-01
      1.14247769e-01 1.47452235e-01 2.20879897e-01 6.55726120e-02
      1.69845626e-01 2.20879897e-01 2.20879897e-01 2.20879897e-01
      1.00516587e-01 1.52240098e-01 1.72344163e-01 2.20879897e-01
      1.68104321e-01 1.14736885e-01 1.38292804e-01 2.20879897e-01
      2.20879897e-01 1.23979807e-01 1.61666438e-01 1.33362010e-01
      2.20879897e-01 1.02452174e-01 1.61295354e-01 1.00605994e-01
      6.87687173e-02 1.96431473e-01 1.75468400e-01 9.94152650e-02
      1.58616498e-01 1.84675246e-01 1.56928167e-01 2.01292753e-01
      9.83410999e-02 1.49040014e-01 2.16357723e-01 1.51649848e-01
      9.59954262e-02 1.10624574e-01 1.25562057e-01 6.66374490e-02
      1.61058769e-01 1.72646821e-01 9.84596759e-02 1.17396593e-01
      1.03848517e-01 6.28726259e-02 1.07035257e-01 1.76108420e-01
      2.16226339e-01 2.92894870e-01 2.92894870e-01 2.92894870e-01
      1.62549049e-01 8.23632032e-02 9.09763873e-02 1.61021754e-01
      1.31033063e-01 9.28166732e-02 1.51393682e-01 1.16309039e-01
      1.08890764e-01 1.39667168e-01 1.31380394e-01 1.09312855e-01
      1.27491862e-01 8.99559930e-02 9.92953777e-02 2.45178163e-01
      2.92894870e-01 2.92894870e-01 2.15549394e-01 1.10881992e-01
      2.98371334e-02 3.85548770e-02 6.97174519e-02 1.83972150e-01
      2.54866153e-01 1.62414625e-01 1.68539494e-01 4.65123616e-02
      2.47913096e-02 2.83989999e-02 2.38713417e-02 8.56169164e-02
      3.04922700e-01 3.04922700e-01 2.23204195e-01 9.48740467e-02
      3.35953198e-02 2.54248288e-02 2.66973600e-02 2.65399404e-02
      2.87807193e-02 1.05106488e-01 2.12926447e-01 3.04922700e-01
      3.04922700e-01 1.25468880e-01 3.11444439e-02 1.75031405e-02
      2.26178914e-02 7.16878399e-02 3.04922700e-01 3.04922700e-01
      2.99093306e-01 1.68461427e-01 7.83292726e-02 3.01629137e-02
      4.55010459e-02 5.31621315e-02 1.28435329e-01 3.02243561e-01
      3.02243561e-01 3.02243561e-01 1.56172648e-01 8.98598954e-02
      7.53884688e-02 9.33284685e-02 1.08885065e-01 1.15436144e-01
      8.62599462e-02 1.72980711e-01 1.94578081e-01 1.42237023e-01
      9.89190340e-02 9.80140716e-02 4.44573350e-02 4.22578976e-02
      8.96842927e-02 3.02243561e-01 3.02243561e-01 3.02243561e-01
      1.77907571e-01 4.50138338e-02 6.00520745e-02 1.50078803e-01
      1.44019797e-01 1.42312154e-01 1.10483021e-01 1.20891839e-01
      2.10708544e-01 1.96072385e-01 9.26195532e-02 9.87149477e-02
      1.53293803e-01 1.50221452e-01 1.84508637e-01 9.24839675e-02
      1.17143966e-01 1.16721250e-01 1.27547517e-01 8.80684257e-02
      1.37675226e-01 2.23975822e-01 2.23975822e-01 2.23975822e-01
      1.56445071e-01 1.35369807e-01 1.10943317e-01 7.54623190e-02
      1.24552347e-01 2.23975822e-01 2.23975822e-01 2.23975822e-01
      1.86175868e-01 9.91980880e-02 6.73954561e-02 1.38165563e-01
      1.72143742e-01 1.40654579e-01 1.42405167e-01 2.23975822e-01
      2.23975822e-01 2.11001083e-01 1.87427849e-01 1.27453133e-01
      1.79764166e-01 1.24942705e-01 1.74451172e-01 2.21477270e-01
      1.89256266e-01 2.07714915e-01 1.42882198e-01 1.86760679e-01
      1.03869103e-01 1.07280247e-01 1.00304358e-01 1.54308334e-01
      1.63511634e-01 1.45733997e-01 2.07714915e-01 1.33697465e-01
      1.87911168e-01 1.35881096e-01 1.58388078e-01 1.46490648e-01
      1.82457969e-01 9.42123309e-02 2.02887461e-01 1.68252915e-01
      1.47482023e-01 2.07714915e-01 1.09402679e-01 1.26331314e-01
      1.58264711e-01 2.07714915e-01 1.96880758e-01 2.07714915e-01
      1.68102279e-01 1.11461721e-01 1.89495862e-01 1.73517779e-01
      1.56899706e-01 2.07714915e-01 2.07714915e-01 1.61268547e-01
      1.43699780e-01 1.44341126e-01 1.00303717e-01 7.65000582e-02
      1.57108322e-01 1.58310264e-01 9.28361267e-02 1.37303442e-01
      2.33675405e-01 2.28097290e-01 1.10782929e-01 8.70695710e-02
      7.17034265e-02 1.94825545e-01 2.33675405e-01 1.10069983e-01
      1.77646682e-01 2.33675405e-01 1.43886715e-01 1.12133637e-01
      1.55875146e-01 1.18461847e-01 1.60228342e-01 1.70712128e-01
      1.39055565e-01 1.63067937e-01 2.33675405e-01 1.62832439e-01
      2.33675405e-01 1.73827797e-01 1.28645897e-01 1.47749677e-01
      2.33675405e-01 1.65652514e-01 1.65124074e-01 2.33675405e-01
      1.39279187e-01 9.09810066e-02 8.67760554e-02 9.57815722e-02
      1.42669916e-01 1.89942479e-01 1.05766751e-01 2.19230369e-01
      2.19230369e-01 1.17087297e-01 1.47365063e-01 2.07715914e-01
      1.88765958e-01 1.58627421e-01 1.34124294e-01 1.24797903e-01
      1.82717666e-01 1.54689729e-01 1.70210406e-01 2.19230369e-01
      1.14760764e-01 1.64505839e-01 1.29865676e-01 2.19230369e-01
      1.85837686e-01 1.62698656e-01 2.09256887e-01 1.77151993e-01
      1.81220964e-01 1.98218167e-01 2.19230369e-01 1.59234673e-01
      2.19230369e-01 1.47455618e-01 1.34054050e-01 8.80014524e-02
      1.52000770e-01 1.80426970e-01 1.34381875e-01 1.46728352e-01
      2.06586137e-01 1.08735330e-01 1.20993987e-01 1.57986656e-01
      1.65432692e-01 2.05655068e-01 1.54349104e-01 1.14358611e-01
      1.20094702e-01 1.79433927e-01 2.26793200e-01 2.26793200e-01
      2.26793200e-01 1.54435143e-01 1.87640071e-01 1.17901519e-01
      1.03829369e-01 1.26362756e-01 2.26793200e-01 1.02216661e-01
      1.53011948e-01 1.51737958e-01 2.26793200e-01 1.90916717e-01
      1.40349180e-01 1.25908181e-01 1.24898225e-01 2.26793200e-01
      1.09155528e-01 1.75490037e-01 1.74591377e-01 1.70900047e-01
      7.32109398e-02 8.09197798e-02 5.47520965e-02 1.06825992e-01
      1.81506455e-01 2.78520137e-01 2.78520137e-01 2.41879255e-01
      8.76939073e-02 6.63180873e-02 1.19714499e-01 9.86874849e-02
      2.78520137e-01 2.78520137e-01 2.78520137e-01 2.65546322e-01
      2.27421656e-01 1.04702570e-01 8.45684186e-02 8.23351666e-02
      7.14025497e-02 6.94285259e-02 1.10164359e-01 9.60448161e-02
      1.24201424e-01 1.42289370e-01 7.61741698e-02 1.54756501e-01
      1.41545877e-01 1.02231815e-01 1.28492147e-01 2.32267559e-01
      1.62291124e-01 1.76715970e-01 1.81593195e-01 1.41780987e-01
      1.37945831e-01 9.89799201e-02 5.29792756e-02 1.72630310e-01
      2.36413553e-01 2.36413553e-01 1.53152555e-01 1.01571277e-01
      1.27207637e-01 2.36413553e-01 1.53138548e-01 9.39639360e-02
      9.03140008e-02 1.59479171e-01 1.81643978e-01 2.34975547e-01
      1.53472155e-01 1.75627828e-01 2.02582344e-01 1.49841085e-01
      8.03184658e-02 1.01422623e-01 1.67591602e-01 1.17133886e-01
      1.21975332e-01 1.22309051e-01 1.93909287e-01 2.36413553e-01
      1.46402866e-01 1.72039375e-01 1.66304275e-01 2.36413553e-01
      1.83121562e-01 1.85271248e-01 1.39115348e-01 2.07216725e-01
      2.15145424e-01 1.46249875e-01 1.02979496e-01 9.02747139e-02
      1.04176700e-01 1.54300407e-01 2.15145424e-01 1.91966474e-01
      1.20790690e-01 2.05668762e-01 1.46276996e-01 1.38447508e-01
      1.58379048e-01 9.32781100e-02 1.87863901e-01 1.24322399e-01
      1.78378344e-01 1.64682105e-01 1.41425520e-01 1.28272787e-01
      1.77506387e-01 1.88261107e-01 2.15145424e-01 1.95909113e-01
      2.15145424e-01 1.69296145e-01 1.32654026e-01 1.38533503e-01
      1.38522089e-01 1.55713439e-01 2.11203933e-01 1.65004194e-01
      2.15145424e-01 1.69670716e-01 2.03261688e-01 1.45672962e-01
      1.72291979e-01 1.20722584e-01 1.23404816e-01 1.86655179e-01
      1.01017326e-01 1.42014131e-01 1.26673669e-01 1.76679730e-01
      2.13727817e-01 2.15362266e-01 1.20307602e-01 9.01683643e-02
      1.61401123e-01 1.32520139e-01 9.45587382e-02 2.15362266e-01
      2.15362266e-01 2.15362266e-01 1.50006235e-01 1.22068822e-01
      1.77044407e-01 2.15362266e-01 1.57909185e-01 2.15362266e-01
      1.18435204e-01 1.33382231e-01 1.76190615e-01 1.71842471e-01
      1.53760925e-01 1.74400777e-01 2.15362266e-01 1.84047416e-01
      8.26894939e-02 1.46559417e-01 1.77987188e-01 2.15362266e-01
      1.50212407e-01 8.72430131e-02 1.44042492e-01 7.77776912e-02
      7.40822777e-02 1.05784245e-01 1.59357131e-01 1.83616474e-01
      2.19196126e-01 1.86871201e-01 2.19196126e-01 2.19196126e-01
      1.10303454e-01 1.04086608e-01 2.19196126e-01 1.40391827e-01
      1.15839988e-01 2.19196126e-01 1.23268910e-01 1.48409292e-01
      1.51162267e-01 1.47798359e-01 1.39683709e-01 1.19553946e-01
      1.80554122e-01 1.59259379e-01 1.83164790e-01 2.19196126e-01
      2.19196126e-01 1.70919582e-01 1.11972250e-01 1.76311463e-01
      2.19196126e-01 2.18385726e-01 1.69284806e-01 1.82217866e-01
      1.95275575e-01 2.13725761e-01 1.67652100e-01 1.60942912e-01
      1.51806593e-01 1.70096621e-01 1.22647837e-01 9.54587832e-02
      8.99001583e-02 2.00656295e-01 2.07292020e-01 1.74475461e-01
      1.98837340e-01 1.61158606e-01 1.78014234e-01 1.26918778e-01
      1.07459933e-01 8.66664127e-02 2.07504287e-01 2.13725761e-01
      1.28319934e-01 8.89219567e-02 2.13725761e-01 2.11479202e-01
      1.47938892e-01 1.25162438e-01 1.13965519e-01 2.01550856e-01
      1.61132693e-01 2.13725761e-01 1.19028091e-01 2.13725761e-01
      2.13725761e-01 1.50337860e-01 1.10013887e-01 1.52454093e-01
      2.12864250e-01 1.23930693e-01 1.52381584e-01 1.06901772e-01
      2.17979327e-01 1.10249713e-01 1.36232004e-01 1.13255925e-01
      2.18939409e-01 1.99564740e-01 1.13592178e-01 1.83498383e-01
      7.24617764e-02 2.25230172e-01 6.97092339e-02 1.05727173e-01
      1.26790553e-01 2.25230172e-01 2.25230172e-01 1.55020773e-01
      1.59855306e-01 1.10054202e-01 2.25230172e-01 1.42183542e-01
      1.75253570e-01 1.02088340e-01 1.98836058e-01 2.25230172e-01
      1.55317470e-01 2.24111423e-01 1.03198916e-01 2.25230172e-01
      1.06426641e-01 1.35758966e-01 8.50491226e-02 2.25230172e-01
      1.33612886e-01 4.50891554e-02 9.08188298e-02 6.32354915e-02
      2.11842969e-01 3.34148630e-02 9.74578112e-02 1.20002136e-01
      1.16030619e-01 2.41395980e-01 1.35253549e-01 1.52801171e-01
      1.41931072e-01 2.16568366e-01 7.01256245e-02 2.34825045e-01
      1.71458885e-01 2.29229271e-01 1.82759717e-01 7.40618110e-02
      1.42039686e-01 5.56629933e-02 2.28421375e-01 1.70551073e-02
      9.75475833e-02 5.16995452e-02 1.49278596e-01 2.48885751e-01
      2.48885751e-01 2.48885751e-01 2.02256471e-01 2.48885751e-01
      5.74516132e-02 2.14208722e-01 1.62094668e-01 2.44572461e-01
      1.00802332e-01 1.38991490e-01 1.83153987e-01 1.00275725e-01
      1.05823822e-01 4.74630110e-02 8.53278488e-02 6.25964031e-02
      1.04748406e-01 1.00323051e-01 1.51479080e-01 2.81558841e-01
      2.24888980e-01 2.73351789e-01 1.22887872e-01 9.01693925e-02
      4.95847017e-02 6.24682680e-02 1.70013189e-01 2.81558841e-01
      2.81558841e-01 1.85904592e-01 1.39207959e-01 3.40232812e-02
      6.17973916e-02 9.82937366e-02 1.39685586e-01 2.81558841e-01
      2.81558841e-01 2.81558841e-01 2.16297090e-01 1.10299461e-01
      6.53496981e-02 6.04821295e-02 7.83266649e-02 1.86876923e-01
      1.06303014e-01 9.27009806e-02 2.01473311e-01 2.07894817e-01
      1.80815876e-01 1.16598129e-01 1.37196302e-01 8.48857611e-02
      1.02235563e-01 1.21203825e-01 7.82760605e-02 1.00550123e-01
      1.50778130e-01 1.70268640e-01 2.08830819e-01 1.18320577e-01
      1.55840784e-01 1.53582290e-01 2.23884255e-01 2.23884255e-01
      1.79666787e-01 1.58004686e-01 1.25597939e-01 1.58196583e-01
      1.77798375e-01 1.13815032e-01 2.02355057e-01 2.23884255e-01
      1.59778565e-01 1.56209126e-01 1.47153601e-01 1.75898477e-01
      2.23884255e-01 2.23884255e-01 1.90576568e-01 2.23884255e-01
      9.89552364e-02 1.00709729e-01 1.19449526e-01 1.38283029e-01
      1.99234754e-01 2.23638654e-01 9.54974219e-02 1.28451049e-01
      1.54939651e-01 1.04629643e-01 1.34182960e-01 1.24731757e-01
      1.60577521e-01 2.01899454e-01 1.51955068e-01 8.44854638e-02
      1.42657563e-01 1.89803392e-01 1.93814620e-01 1.41198635e-01
      1.23252727e-01 1.46306828e-01 1.90864041e-01 2.23638654e-01
      1.94776610e-01 2.23638654e-01 2.23638654e-01 1.53531045e-01
      1.11591682e-01 7.73002580e-02 1.17654637e-01 2.23638654e-01
      2.23638654e-01 1.81754231e-01 2.23638654e-01 2.23638654e-01
      1.45096377e-01 1.65339187e-01 1.06296726e-01 1.29872978e-01
      1.84072942e-01 1.45213306e-01 1.01930365e-01 1.48803920e-01
      1.43256932e-01 2.10280061e-01 2.10280061e-01 1.74428135e-01
      1.17749266e-01 1.57542452e-01 1.86706051e-01 1.65934175e-01
      1.83231533e-01 1.56891242e-01 1.74770162e-01 1.52613699e-01
      8.26773494e-02 7.95479566e-02 2.10280061e-01 2.10280061e-01
      1.24803424e-01 1.91910535e-01 2.10280061e-01 2.08434477e-01
      1.94653347e-01 1.64962530e-01 1.12242505e-01 1.88692167e-01
      2.03369960e-01 1.25114769e-01 1.79273874e-01 1.92951441e-01
      1.60362855e-01 2.20441535e-01 1.56216621e-01 7.45190233e-02
      1.15692414e-01 1.47774890e-01 1.24808200e-01 1.83491215e-01
      1.53243855e-01 1.18083648e-01 1.99840277e-01 2.44122252e-01
      1.29794285e-01 2.05039233e-01 1.34604961e-01 8.68444368e-02
      1.47158399e-01 1.75774157e-01 1.41400576e-01 2.44122252e-01
      2.44122252e-01 1.42662987e-01 1.03285439e-01 1.10547960e-01
      8.23017433e-02 1.87681034e-01 1.43684268e-01 9.36657637e-02
      2.44122252e-01 2.44122252e-01 2.44122252e-01 1.93495065e-01
      7.29097426e-02 4.30673249e-02 1.74465969e-01 1.64576933e-01
      1.23648845e-01 1.39675573e-01 1.05530284e-01 5.91950044e-02
      1.87565476e-01 1.31233737e-01 1.89655364e-01 2.12904915e-01
      1.72557145e-01 1.73462242e-01 1.51289165e-01 1.76936090e-01
      1.01385057e-01 2.12100208e-01 1.04095228e-01 1.66209221e-01
      1.54631853e-01 2.28557229e-01 1.07870832e-01 8.84353146e-02
      6.02716133e-02 4.16892096e-02 1.58828974e-01 2.28557229e-01
      2.01569244e-01 2.28557229e-01 1.83705866e-01 1.68667212e-01
      1.46050781e-01 1.36672333e-01 9.19823125e-02 2.28557229e-01
      2.28557229e-01 1.82835832e-01 2.28557229e-01 1.86191320e-01
      5.10277338e-02 2.46498529e-02 1.12031199e-01 5.63080423e-02
      6.05486520e-02 1.84969474e-02 4.80118655e-02 2.24692449e-02
      4.71575260e-02 1.54896259e-01 2.78778315e-01 2.86840886e-01
      2.86840886e-01 1.18112318e-01 3.27909403e-02 8.14516917e-02
      1.06900275e-01 9.92155150e-02 5.40325269e-02 4.35332023e-02
      1.77584216e-01 1.01224042e-01 1.63330302e-01 1.35226816e-01
      1.11609742e-01 3.93422320e-02 3.29657458e-02 1.08899541e-01
      1.53667733e-01 2.86840886e-01 2.86840886e-01 2.86840886e-01
      2.68380046e-01 2.86840886e-01 2.86840886e-01 1.85528398e-01
      1.48522675e-01 2.36415014e-01 2.36415014e-01 1.63949594e-01
      4.98998985e-02 1.46447122e-02 4.09579277e-02 1.18090414e-01
      1.26125962e-01 2.36415014e-01 2.36415014e-01 9.87096205e-02
      1.20470203e-01 3.30831595e-02 3.15893069e-02 5.52357845e-02
      8.99083838e-02 1.74293876e-01 1.43024117e-01 1.70576274e-01
      2.36415014e-01 1.83207542e-01 1.30648524e-01 7.64559358e-02
      1.67182103e-01 2.36415014e-01 2.36415014e-01 2.25968078e-01
      2.36415014e-01 9.35118049e-02 1.74098268e-01 4.65523414e-02
      7.43241757e-02 2.36415014e-01 2.36415014e-01 2.36415014e-01
      2.40724370e-01 2.29445308e-01 1.37601495e-01 1.24672100e-01
      5.23664393e-02 6.75978661e-02 8.12936276e-02 4.08988930e-02
      1.19008221e-01 2.40724370e-01 1.84083655e-01 2.40724370e-01
      1.54514953e-01 7.00725242e-02 1.36404827e-01 9.49779898e-02
      8.86099711e-02 9.17305574e-02 2.40724370e-01 2.40724370e-01
      2.40395561e-01 2.40724370e-01 5.78748025e-02 4.53596413e-02
      1.83341488e-01 1.32092312e-01 2.40068242e-01 1.98943749e-01
      2.40724370e-01 2.40724370e-01 2.40724370e-01 9.95600596e-02
      6.21545054e-02 1.00963391e-01 1.06825225e-01 7.59281293e-02
      1.91621616e-01 1.97057009e-01 2.54713386e-01 2.54713386e-01
      1.25923529e-01 2.10123464e-01 1.10739462e-01 1.94787353e-01
      1.50170714e-01 1.22774832e-01 6.54998943e-02 1.25000179e-01
      1.83178067e-01 1.34397432e-01 1.71158910e-01 1.07068986e-01
      1.59647450e-01 1.34420633e-01 1.37585938e-01 2.54713386e-01
      2.54713386e-01 2.54713386e-01 1.73585117e-01 1.33016706e-01
      9.26637203e-02 1.23829551e-01 4.88005243e-02 1.66366741e-01
      1.17406681e-01 2.27782756e-01 2.45303437e-01 1.48549095e-01
      9.27637145e-02 7.00373650e-02 7.90264159e-02 7.36409798e-02
      1.32714197e-01 1.01244971e-01 1.08745173e-01 1.38431460e-01
      1.41668528e-01 2.06887722e-01 1.66907266e-01 1.44738913e-01
      2.05618605e-01 1.55607074e-01 1.64484411e-01 1.50416613e-01
      1.20003581e-01 1.58121943e-01 2.11916074e-01 1.76476419e-01
      1.64972723e-01 1.83916718e-01 2.03084126e-01 1.02636464e-01
      1.67772546e-01 2.11916074e-01 1.74681962e-01 1.09153070e-01
      1.60561100e-01 8.51246417e-02 1.32176906e-01 1.73603401e-01
      1.48485288e-01 2.09080175e-01 2.11916074e-01 2.11916074e-01
      2.11916074e-01 1.89530313e-01 1.16530731e-01 1.91818923e-01
      1.53640822e-01 2.07690030e-01 2.06576020e-01 1.21738657e-01
      1.16946548e-01 1.50548667e-01 7.73750171e-02 9.28130746e-02
      1.26610681e-01 1.69193015e-01 2.29777858e-01 2.29777858e-01
      2.16926455e-01 1.59327209e-01 1.31604105e-01 6.16315082e-02
      7.06695095e-02 1.26119122e-01 1.40356123e-01 1.72853872e-01
      1.37870550e-01 1.12371422e-01 2.24603519e-01 1.87383503e-01
      1.06921218e-01 8.72190967e-02 1.75441787e-01 2.29777858e-01
      2.29777858e-01 2.29777858e-01 8.70545059e-02 2.29777858e-01
      1.99431568e-01 1.57416552e-01 9.22759324e-02 2.22223803e-01</_>
    <_>
      1.71461135e-01 1.22774616e-01 1.77087024e-01 1.03151023e-01
      1.33049726e-01 1.08629256e-01 1.33271053e-01 1.79058343e-01
      1.72134802e-01 1.83642060e-01 2.15172887e-01 1.09542899e-01
      1.08694181e-01 2.09461540e-01 1.04305625e-01 1.47021756e-01
      1.86347261e-01 2.15172887e-01 1.27086163e-01 1.67279914e-01
      1.39744312e-01 1.59165666e-01 1.50878757e-01 1.82817712e-01
      1.67154759e-01 1.73763722e-01 2.15172887e-01 1.40417770e-01
      2.15172887e-01 1.87856928e-01 1.39805391e-01 1.77504316e-01
      1.53634295e-01 1.51692510e-01 2.15172887e-01 2.15172887e-01
      1.32515982e-01 1.79713488e-01 7.07563907e-02 8.90874490e-02
      1.69226274e-01 9.80145037e-02 1.15440965e-01 1.58661380e-01
      2.16405317e-01 1.01842135e-01 1.52853772e-01 1.99394807e-01
      1.92438066e-01 1.94920272e-01 1.19372316e-01 7.01665506e-02
      1.07915841e-01 1.52460426e-01 1.56074837e-01 1.98088855e-01
      2.05121815e-01 1.47639200e-01 1.31580979e-01 1.39265418e-01
      1.54600739e-01 2.16405317e-01 2.16405317e-01 2.16405317e-01
      2.06957266e-01 2.01179549e-01 2.01919287e-01 2.08091393e-01
      1.32556841e-01 1.08067997e-01 1.91946968e-01 2.16405317e-01
      1.31810993e-01 1.13942787e-01 1.85989723e-01 2.16726497e-01
      2.06787914e-01 1.32361919e-01 6.39957711e-02 1.08003996e-01
      1.17363840e-01 1.49850160e-01 1.65128455e-01 1.74116597e-01
      1.28569648e-01 1.86985657e-01 1.34282246e-01 1.54279336e-01
      1.21771194e-01 8.20495114e-02 2.17451453e-01 1.33717179e-01
      1.61217541e-01 2.17451453e-01 2.17451453e-01 1.37707278e-01
      5.05211204e-02 1.70106694e-01 2.17451453e-01 1.71780065e-01
      1.76923290e-01 2.17451453e-01 1.62342310e-01 1.97926238e-01
      1.87578499e-01 1.53697699e-01 1.94888920e-01 2.17451453e-01
      1.39725119e-01 1.36164844e-01 1.21065333e-01 4.47922908e-02
      1.85205251e-01 1.09538563e-01 1.51179120e-01 7.08944127e-02
      9.68205631e-02 1.78899854e-01 1.51490405e-01 1.31622583e-01
      1.33277968e-01 2.08668619e-01 1.59709007e-01 2.02821940e-01
      8.99695531e-02 1.64107874e-01 1.69436768e-01 1.08048461e-01
      1.60456926e-01 8.24027508e-02 2.03804195e-01 1.48100227e-01
      2.08668619e-01 1.65095583e-01 2.08668619e-01 2.06019700e-01
      2.07383215e-01 2.08668619e-01 1.96744844e-01 1.95436865e-01
      2.02076390e-01 2.08668619e-01 1.99569240e-01 2.08668619e-01
      1.72736987e-01 1.44448817e-01 1.47407159e-01 1.50814608e-01
      1.53049678e-01 8.91490057e-02 1.52892306e-01 8.18585381e-02
      1.42296210e-01 1.87021628e-01 1.89921021e-01 1.96019202e-01
      1.42209619e-01 1.42913118e-01 7.26266801e-02 8.03200752e-02
      1.06975265e-01 1.97428241e-01 1.65770262e-01 2.23553136e-01
      2.23553136e-01 2.23553136e-01 7.58603290e-02 9.47360173e-02
      1.66120231e-01 1.52892441e-01 1.10026702e-01 2.23553136e-01
      2.23553136e-01 2.23553136e-01 2.23553136e-01 1.02755830e-01
      1.44948944e-01 1.65322527e-01 2.23553136e-01 2.11257070e-01
      1.26562074e-01 1.19815215e-01 1.62587658e-01 9.55710858e-02
      1.55020952e-01 1.04735740e-01 6.95788935e-02 1.24548458e-01
      1.76647693e-01 1.62191868e-01 1.19336955e-01 1.78454861e-01
      9.04526114e-02 1.52079612e-01 1.26906738e-01 1.16043158e-01
      1.68755472e-01 2.00253174e-01 2.02041194e-01 1.31141767e-01
      1.62269726e-01 1.46881685e-01 1.93111509e-01 2.02417985e-01
      2.08569229e-01 2.15872511e-01 2.15872511e-01 1.87173203e-01
      1.29505619e-01 1.43719465e-01 1.45441562e-01 2.06339970e-01
      2.15872511e-01 2.15872511e-01 2.15872511e-01 2.15872511e-01
      1.50978386e-01 1.46371573e-01 2.09567651e-01 1.26273662e-01
      1.11042775e-01 1.15711801e-01 9.64995101e-02 1.75615609e-01
      1.74272656e-01 1.97231710e-01 1.43474624e-01 1.92317337e-01
      1.92829147e-01 1.74393445e-01 1.46817401e-01 8.36255699e-02
      1.20601542e-01 1.57179177e-01 1.61984473e-01 1.67137265e-01
      1.49221018e-01 1.40205279e-01 8.38883743e-02 1.61732718e-01
      2.09567651e-01 2.09567651e-01 1.96573436e-01 2.09567651e-01
      1.90354005e-01 1.49959847e-01 1.93016261e-01 1.19586594e-01
      1.81046560e-01 2.09567651e-01 2.09567651e-01 1.87427700e-01
      9.71053094e-02 1.23477258e-01 7.63878301e-02 9.20849368e-02
      6.57439604e-02 1.16820201e-01 1.16126038e-01 1.13420114e-01
      1.36577636e-01 2.41324529e-01 3.22655916e-01 1.13313891e-01
      7.19351694e-02 6.12684004e-02 7.71203935e-02 7.92869627e-02
      1.25292838e-01 1.55168638e-01 1.67595536e-01 3.22655916e-01
      3.22655916e-01 1.49167448e-01 5.51229157e-02 6.78550676e-02
      1.29434466e-01 1.05607942e-01 5.78574575e-02 3.22655916e-01
      3.22655916e-01 3.22655916e-01 1.25474378e-01 3.45078297e-02
      4.36231978e-02 6.93255886e-02 1.17108397e-01 1.07528850e-01
      2.77582318e-01 2.77781606e-01 8.61116871e-02 3.84358056e-02
      3.97037119e-02 6.08301200e-02 6.47477955e-02 1.10535949e-01
      1.88185379e-01 2.77781606e-01 2.77781606e-01 7.43963644e-02
      3.84403542e-02 5.11385314e-02 4.40079831e-02 7.60846511e-02
      1.42083764e-01 2.77781606e-01 2.77781606e-01 2.77781606e-01
      6.60298467e-02 3.70269865e-02 2.60111988e-02 2.60573179e-02
      4.66970764e-02 1.19919412e-01 2.27511317e-01 2.77781606e-01
      2.77781606e-01 1.19493037e-01 4.12090272e-02 4.23043445e-02
      4.44444753e-02 7.04430044e-02 1.48529425e-01 2.77781606e-01
      2.46161819e-01 1.16563499e-01 4.56308015e-02 4.11740765e-02
      4.91335541e-02 4.75813076e-02 1.50769308e-01 1.86962441e-01
      2.46161819e-01 1.40166253e-01 1.40917629e-01 9.03257579e-02
      3.89445759e-02 3.80276963e-02 9.05915275e-02 2.00174704e-01
      2.08984271e-01 1.82815358e-01 2.46161819e-01 2.39421532e-01
      1.24527097e-01 4.55145761e-02 4.72225398e-02 7.99696520e-02
      2.46161819e-01 2.46161819e-01 2.46161819e-01 2.46161819e-01
      1.94668785e-01 1.28620431e-01 8.50649998e-02 5.95643185e-02
      1.35796264e-01 2.46161819e-01 2.46161819e-01 1.71060130e-01
      1.99426025e-01 1.37162074e-01 1.03750147e-01 4.25291844e-02
      4.63035852e-02 7.24765286e-02 9.92701203e-02 1.35104686e-01
      2.53465503e-01 2.26276591e-01 1.40311122e-01 1.17836848e-01
      7.91848153e-02 5.38084917e-02 7.98987448e-02 9.28208157e-02
      1.78646415e-01 2.53465503e-01 2.53465503e-01 1.94091409e-01
      1.86520576e-01 1.16940998e-01 8.08884129e-02 8.66224393e-02
      1.77436471e-01 2.47490123e-01 2.53465503e-01 2.53465503e-01
      1.82073712e-01 1.73279777e-01 1.20695956e-01 1.27631694e-01
      5.98387010e-02 9.85174850e-02 2.53465503e-01 2.53465503e-01
      1.63135976e-01 2.09540293e-01 1.97548732e-01 1.59200355e-01
      2.92252526e-02 4.74355333e-02 9.32252482e-02 1.51309088e-01
      9.22073796e-02 1.68712020e-01 1.96726859e-01 2.09540293e-01
      2.09540293e-01 5.53840511e-02 1.19306155e-01 1.46448791e-01
      1.80005699e-01 9.97629389e-02 2.09540293e-01 2.09540293e-01
      1.99574590e-01 1.46373555e-01 1.03264354e-01 6.99925348e-02
      1.28727853e-01 1.84356913e-01 2.09540293e-01 2.09540293e-01
      1.73665494e-01 2.09540293e-01 1.87886044e-01 1.36844277e-01
      2.09540293e-01 2.09540293e-01 2.09540293e-01 1.44637123e-01
      1.34346470e-01 5.91711365e-02 1.33305967e-01 1.53811887e-01
      1.26911998e-01 2.02567890e-01 2.09731832e-01 1.44236282e-01
      1.27100259e-01 1.57985225e-01 7.10318908e-02 1.24287926e-01
      7.70415664e-02 1.39819875e-01 1.91986024e-01 2.12165117e-01
      2.15447053e-01 1.33491024e-01 1.35795027e-01 6.38221875e-02
      1.69898778e-01 1.78209066e-01 1.81502938e-01 2.15447053e-01
      2.15447053e-01 2.14699000e-01 1.08171977e-01 2.15447053e-01
      1.27224714e-01 2.15447053e-01 1.18559003e-01 1.77511007e-01
      2.15447053e-01 2.15447053e-01 2.15447053e-01 1.38498023e-01
      1.89590648e-01 8.83710533e-02 1.12975597e-01 4.23634388e-02
      4.27050740e-02 8.72852579e-02 1.94173664e-01 2.23716035e-01
      1.75547555e-01 1.75108030e-01 9.76113155e-02 9.08427984e-02
      5.81820011e-02 3.95081751e-02 8.45058039e-02 1.64202467e-01
      2.10593417e-01 2.04432070e-01 2.31399179e-01 1.32264093e-01
      2.29836717e-01 9.02385414e-02 1.09937340e-01 1.88916638e-01
      2.31399179e-01 2.31399179e-01 2.19126746e-01 2.31399179e-01
      1.24757633e-01 1.32263631e-01 1.23744287e-01 8.79609510e-02
      1.80410028e-01 2.31399179e-01 2.31399179e-01 2.31399179e-01
      1.14807636e-01 3.63276333e-01 3.63276333e-01 1.81719542e-01
      5.44843189e-02 2.67476384e-02 6.77404702e-02 5.30764237e-02
      4.38811071e-02 1.73189744e-01 3.63276333e-01 3.63276333e-01
      1.01461418e-01 3.79705690e-02 4.99868728e-02 6.72263205e-02
      9.22203958e-02 8.49683806e-02 1.13614395e-01 2.62322426e-01
      3.63276333e-01 1.83584318e-01 1.03918560e-01 5.79858795e-02
      6.52694628e-02 3.82669866e-02 7.78702945e-02 8.07267502e-02
      1.01950645e-01 1.18141368e-01 5.50022461e-02 8.42966661e-02
      8.87730122e-02 9.61585939e-02 7.71296024e-02 8.59137028e-02
      1.76209807e-01 2.69443363e-01 1.36466995e-01 1.11454934e-01
      5.21395989e-02 4.27055508e-02 8.37630481e-02 1.07535839e-01
      1.68469414e-01 1.83591247e-01 2.74028093e-01 2.74028093e-01
      2.74028093e-01 1.38659880e-01 1.01726800e-01 7.26807415e-02
      8.28949586e-02 1.69229597e-01 8.62354487e-02 9.56465453e-02
      2.64136344e-01 2.53300369e-01 9.77946818e-02 1.03657082e-01
      8.95209014e-02 5.91647401e-02 1.08335324e-01 1.02164797e-01
      2.20358729e-01 2.74028093e-01 2.74028093e-01 1.97098643e-01
      1.47316441e-01 9.77601856e-02 4.98536602e-02 7.66177103e-02
      1.11148372e-01 2.39247546e-01 2.49815851e-01 1.42838538e-01
      1.50095090e-01 9.99789983e-02 1.32876322e-01 1.14362150e-01
      5.17569222e-02 1.82019725e-01 1.49272233e-01 1.46659747e-01
      1.77904665e-01 2.33700603e-01 1.15645662e-01 2.56956697e-01
      2.56956697e-01 1.23453520e-01 5.60898334e-02 1.09748766e-01
      2.06502125e-01 2.26806417e-01 2.56956697e-01 1.29725739e-01
      7.19295219e-02 5.74245825e-02 4.84996065e-02 6.45018965e-02
      1.10928878e-01 1.43861741e-01 2.56956697e-01 2.56956697e-01
      2.06523851e-01 1.25268534e-01 1.27027124e-01 9.26458836e-02
      2.20593676e-01 1.35577396e-01 1.63044780e-01 1.41044900e-01
      1.57876760e-01 9.76654887e-02 1.82093263e-01 2.20593676e-01
      2.20593676e-01 2.20593676e-01 1.78738415e-01 1.42983705e-01
      1.17377572e-01 1.38667747e-01 8.34812745e-02 8.84814635e-02
      1.93334505e-01 2.20593676e-01 1.09478205e-01 2.01577276e-01
      1.45202532e-01 2.20593676e-01 2.20593676e-01 1.81153268e-01
      1.84300452e-01 1.78506330e-01 1.67807698e-01 2.05408916e-01
      2.20593676e-01 1.36130765e-01 8.23049024e-02 8.43150914e-02
      8.80745128e-02 9.59536135e-02 1.31428197e-01 1.70568138e-01
      1.87263936e-01 1.80205435e-01 1.64172769e-01 1.12784989e-01
      1.34141505e-01 1.13733567e-01 1.27145797e-01 1.55235037e-01
      1.43880054e-01 2.29264379e-01 1.19038254e-01 1.80306688e-01
      1.06668085e-01 1.12898774e-01 1.84994102e-01 2.29264379e-01
      2.29264379e-01 2.13769391e-01 2.26653859e-01 2.14126185e-01
      1.47369266e-01 7.45299459e-02 9.26482230e-02 7.15423003e-02
